{"learner":{"attributes":{"scikit_learn":"{\"_estimator_type\": \"regressor\"}"},"feature_names":["budget","popularity","runtime","vote_average","vote_count","release_year","release_month","release_day","log_budget","main_genre_Adventure","main_genre_Animation","main_genre_Comedy","main_genre_Crime","main_genre_Documentary","main_genre_Drama","main_genre_Family","main_genre_Fantasy","main_genre_Foreign","main_genre_History","main_genre_Horror","main_genre_Music","main_genre_Mystery","main_genre_Romance","main_genre_Science","main_genre_Thriller","main_genre_War","main_genre_Western","main_genre_","original_language_cn","original_language_da","original_language_de","original_language_en","original_language_es","original_language_fa","original_language_fr","original_language_he","original_language_hi","original_language_id","original_language_is","original_language_it","original_language_ja","original_language_ko","original_language_nb","original_language_nl","original_language_no","original_language_pl","original_language_pt","original_language_ro","original_language_ru","original_language_te","original_language_th","original_language_vi","original_language_xx","original_language_zh"],"feature_types":["int","float","float","float","int","int","int","int","float","i","i","i","i","i","i","i","i","i","i","i","i","i","i","i","i","i","i","i","i","i","i","i","i","i","i","i","i","i","i","i","i","i","i","i","i","i","i","i","i","i","i","i","i","i"],"gradient_booster":{"model":{"gbtree_model_param":{"num_parallel_tree":"1","num_trees":"100"},"iteration_indptr":[0,1,2,3,4,5,6,7,8,9,10,11,12,13,14,15,16,17,18,19,20,21,22,23,24,25,26,27,28,29,30,31,32,33,34,35,36,37,38,39,40,41,42,43,44,45,46,47,48,49,50,51,52,53,54,55,56,57,58,59,60,61,62,63,64,65,66,67,68,69,70,71,72,73,74,75,76,77,78,79,80,81,82,83,84,85,86,87,88,89,90,91,92,93,94,95,96,97,98,99,100],"tree_info":[0,0,0,0,0,0,0,0,0,0,0,0,0,0,0,0,0,0,0,0,0,0,0,0,0,0,0,0,0,0,0,0,0,0,0,0,0,0,0,0,0,0,0,0,0,0,0,0,0,0,0,0,0,0,0,0,0,0,0,0,0,0,0,0,0,0,0,0,0,0,0,0,0,0,0,0,0,0,0,0,0,0,0,0,0,0,0,0,0,0,0,0,0,0,0,0,0,0,0,0],"trees":[{"base_weights":[6.4655296E-3,-1.4741149E0,8.554018E-1,-9.677254E0,-1.3171405E0,1.2197892E-1,1.4763738E0,-1.1020895E1,-1.0769396E-1,-2.2210562E0,-7.10893E-1,-7.473378E-1,4.316188E-1,1.0550454E0,2.1746361E0,-1.1703483E1,-1.7562132E-1,-2.5308945E0,-1.1404116E0,-2.1117878E0,-5.24199E-1,-9.875866E-1,-1.5381746E-1,1.373496E-1,9.619201E-1,8.2707787E-1,1.400069E0,1.78739E0,2.568985E0,-2.9876038E-1,-1.227631E0,-2.7474632E0,-1.3998148E0,-1.548753E0,-7.564295E-1,-2.6585155E0,-1.4628096E0,-8.6210823E-1,-3.495801E-2,-1.2124227E0,-3.5374856E-1,9.462975E-1,-4.0374613E-1,-1.2155809E-1,3.4233618E-1,7.094521E-1,1.2150029E0,8.452993E-1,-2.0463572E-1,9.1214603E-1,1.5190195E0,1.5333657E0,2.1319726E-1,2.189862E-1,2.8095478E-1,-3.5746568E-1,-2.4229136E-1,-2.4244122E-1,-1.0116219E-1,8.018055E-2,-1.6504423E-1,-1.40393255E-2,-8.066564E-2,-1.4911419E-1,-3.2574913E-1,-1.22215204E-1,-3.7396246E-1,-4.324978E-1,-7.9813614E-2,-2.0214071E-2,1.306122E-2,-1.0701119E-1,-2.604639E-1,-7.3361725E-2,8.30076E-2,1.0592543E-1,3.6729943E-2,-1.3692302E-1,-6.8459893E-3,-2.4515113E-2,6.998525E-2,-1.4633335E-3,4.9409874E-2,9.1959074E-2,4.5418154E-2,1.2821552E-1,5.577075E-2,6.9126815E-2,1.0770904E-1,2.573395E-3,9.620629E-2,4.7626495E-2,1.5461868E-1,1.3386415E-1,1.7621695E-1],"categories":[],"categories_nodes":[],"categories_segments":[],"categories_sizes":[],"default_left":[0,0,0,0,0,0,0,0,0,0,0,0,0,0,0,0,0,0,0,0,0,0,0,0,0,0,0,0,0,0,0,0,0,0,0,0,0,0,0,0,0,0,0,0,0,0,0,0,0,0,0,0,0,0,0,0,0,0,0,0,0,0,0,0,0,0,0,0,0,0,0,0,0,0,0,0,0,0,0,0,0,0,0,0,0,0,0,0,0,0,0,0,0,0,0],"id":0,"left_children":[1,3,5,7,9,11,13,15,-1,17,19,21,23,25,27,29,-1,31,33,35,37,39,41,43,45,47,49,51,53,-1,-1,55,57,59,61,63,65,67,69,71,73,75,77,79,81,83,85,87,-1,89,91,93,-1,-1,-1,-1,-1,-1,-1,-1,-1,-1,-1,-1,-1,-1,-1,-1,-1,-1,-1,-1,-1,-1,-1,-1,-1,-1,-1,-1,-1,-1,-1,-1,-1,-1,-1,-1,-1,-1,-1,-1,-1,-1,-1],"loss_changes":[2.6005684E3,9.581669E2,5.98717E2,1.4991125E2,4.044867E2,1.6290434E2,2.0717456E2,5.5333862E1,0E0,9.6556885E1,1.1527768E2,2.252031E1,6.946677E1,3.3921783E1,3.6181763E1,1.8242798E1,0E0,5.2493896E1,9.490601E0,1.4561432E1,6.510556E1,1.56747055E1,1.3304726E1,1.5326521E1,9.297363E0,1.59188385E1,8.829254E0,8.810364E0,5.7038574E0,0E0,0E0,4.28844E1,1.3059326E1,8.972168E0,1.0315876E0,1.402179E1,9.675865E0,4.8163895E1,4.510639E0,1.3657318E1,1.4549591E1,1.9955254E-1,1.253109E1,1.316621E1,8.7293415E0,3.980999E0,2.727768E0,8.895264E0,0E0,1.6123791E0,3.2296448E0,1.3390503E0,0E0,0E0,0E0,0E0,0E0,0E0,0E0,0E0,0E0,0E0,0E0,0E0,0E0,0E0,0E0,0E0,0E0,0E0,0E0,0E0,0E0,0E0,0E0,0E0,0E0,0E0,0E0,0E0,0E0,0E0,0E0,0E0,0E0,0E0,0E0,0E0,0E0,0E0,0E0,0E0,0E0,0E0,0E0],"parents":[2147483647,0,0,1,1,2,2,3,3,4,4,5,5,6,6,7,7,9,9,10,10,11,11,12,12,13,13,14,14,15,15,17,17,18,18,19,19,20,20,21,21,22,22,23,23,24,24,25,25,26,26,27,27,28,28,31,31,32,32,33,33,34,34,35,35,36,36,37,37,38,38,39,39,40,40,41,41,42,42,43,43,44,44,45,45,46,46,47,47,49,49,50,50,51,51],"right_children":[2,4,6,8,10,12,14,16,-1,18,20,22,24,26,28,30,-1,32,34,36,38,40,42,44,46,48,50,52,54,-1,-1,56,58,60,62,64,66,68,70,72,74,76,78,80,82,84,86,88,-1,90,92,94,-1,-1,-1,-1,-1,-1,-1,-1,-1,-1,-1,-1,-1,-1,-1,-1,-1,-1,-1,-1,-1,-1,-1,-1,-1,-1,-1,-1,-1,-1,-1,-1,-1,-1,-1,-1,-1,-1,-1,-1,-1,-1,-1],"split_conditions":[2.91E2,1E5,3.25E7,1E0,9.6E1,7E6,1.59E3,1E0,-1.0769396E-1,2.1E7,3.5E6,9.72E2,9.27E2,8.36E2,1.05E8,2.80083E-1,-1.7562132E-1,1.2E2,5.5E1,1.644736E6,2.6E7,1E0,9E1,1.77E7,1.543E3,1E0,4.3E7,2.892E3,3.095E3,-2.9876038E-1,-1.227631E0,2.3E6,2.785832E0,2E0,2.3E7,8E0,1E0,3.476966E0,1.96E2,3.2908413E1,1.05E2,3.2E6,1.5E6,1.2E1,3.92E2,1.8E1,1.35E2,6.1E7,-2.0463572E-1,8.8E1,2E0,6.7E7,2.1319726E-1,2.189862E-1,2.8095478E-1,-3.5746568E-1,-2.4229136E-1,-2.4244122E-1,-1.0116219E-1,8.018055E-2,-1.6504423E-1,-1.40393255E-2,-8.066564E-2,-1.4911419E-1,-3.2574913E-1,-1.22215204E-1,-3.7396246E-1,-4.324978E-1,-7.9813614E-2,-2.0214071E-2,1.306122E-2,-1.0701119E-1,-2.604639E-1,-7.3361725E-2,8.30076E-2,1.0592543E-1,3.6729943E-2,-1.3692302E-1,-6.8459893E-3,-2.4515113E-2,6.998525E-2,-1.4633335E-3,4.9409874E-2,9.1959074E-2,4.5418154E-2,1.2821552E-1,5.577075E-2,6.9126815E-2,1.0770904E-1,2.573395E-3,9.620629E-2,4.7626495E-2,1.5461868E-1,1.3386415E-1,1.7621695E-1],"split_indices":[4,0,0,19,4,0,4,13,0,0,0,4,4,4,0,1,0,2,4,0,0,11,2,0,4,30,0,4,4,0,0,0,1,6,0,6,23,1,4,1,2,0,0,6,4,7,2,0,0,2,6,0,0,0,0,0,0,0,0,0,0,0,0,0,0,0,0,0,0,0,0,0,0,0,0,0,0,0,0,0,0,0,0,0,0,0,0,0,0,0,0,0,0,0,0],"split_type":[0,0,0,0,0,0,0,0,0,0,0,0,0,0,0,0,0,0,0,0,0,0,0,0,0,0,0,0,0,0,0,0,0,0,0,0,0,0,0,0,0,0,0,0,0,0,0,0,0,0,0,0,0,0,0,0,0,0,0,0,0,0,0,0,0,0,0,0,0,0,0,0,0,0,0,0,0,0,0,0,0,0,0,0,0,0,0,0,0,0,0,0,0,0,0],"sum_hessian":[2.067E3,7.53E2,1.314E3,1.3E1,7.4E2,6.03E2,7.11E2,1.1E1,2E0,2.96E2,4.44E2,1.58E2,4.45E2,4.45E2,2.66E2,1E1,1E0,2.29E2,6.7E1,5.1E1,3.93E2,1.12E2,4.6E1,2.87E2,1.58E2,2.7E2,1.75E2,1.37E2,1.29E2,1E0,9E0,1.91E2,3.8E1,3.1E1,3.6E1,2.6E1,2.5E1,2.32E2,1.61E2,8.2E1,3E1,8E0,3.8E1,1.27E2,1.6E2,8.1E1,7.7E1,2.69E2,1E0,3.6E1,1.39E2,8.2E1,5.5E1,5.4E1,7.5E1,5.1E1,1.4E2,9E0,2.9E1,1E0,3E1,3E0,3.3E1,1E1,1.6E1,2.4E1,1E0,3E0,2.29E2,8E1,8.1E1,7.6E1,6E0,2.3E1,7E0,6E0,2E0,9E0,2.9E1,1.11E2,1.6E1,4.8E1,1.12E2,4.3E1,3.8E1,6.9E1,8E0,1.64E2,1.05E2,2E0,3.4E1,4E0,1.35E2,4.8E1,3.4E1],"tree_param":{"num_deleted":"0","num_feature":"54","num_nodes":"95","size_leaf_vector":"1"}},{"base_weights":[-1.0609115E-2,-1.463247E0,7.1044666E-1,-8.989331E0,-1.3040391E0,5.1191065E-2,1.3163763E0,-9.584487E0,-6.261511E-2,-2.627198E0,-9.310708E-1,-6.339667E-1,3.4768534E-1,9.585951E-1,1.9583151E0,-8.8156365E-2,-1.0236267E1,-4.0181465E0,-2.2661498E0,-1.6409398E0,-5.52794E-1,-1.8677254E0,-4.8650613E-1,5.1099632E-2,7.6449287E-1,7.376242E-1,1.3082528E0,1.6836911E0,2.325E0,-1.0863491E1,-1.6684027E-1,-1.8848654E0,-4.74107E0,-1.8949064E0,-2.9790876E0,-7.678679E-1,-2.0967016E0,-8.811087E-1,-1.9128217E-1,-1.2194141E0,-2.5966498E-1,-7.1253115E-1,2.9715255E-1,3.593117E-1,-2.3986532E-1,5.598442E-1,1.174649E0,7.5385475E-1,-1.9440393E-1,1.122454E0,1.5923029E0,1.4313498E0,1.8923607E-1,1.8971399E0,2.515223E-1,-1.1382196E0,-2.838224E-1,-7.75249E-2,-2.3104656E-1,-3.749587E-1,-7.163898E-1,-1.9743463E-1,-7.730637E-2,-3.756306E-1,-1.13570474E-1,-9.01448E-2,-1.1390051E-2,-2.815176E-1,-1.6682462E-1,-2.79937E-1,-7.873099E-2,-4.77301E-2,1.9265732E-3,5.4617595E-2,-1.8037088E-1,-9.881064E-3,-1.0118113E-1,5.5937927E-2,-4.6886396E-2,6.635999E-2,1.996267E-2,-4.842044E-2,-1.5397961E-3,3.0736743E-2,8.879855E-2,1.2178214E-1,4.3028604E-2,4.5966804E-2,9.2291E-2,1.2067088E-1,7.267549E-2,1.664926E-1,9.312276E-2,3.3334445E-2,1.4421196E-1,1.9250508E-1,4.461756E-2],"categories":[],"categories_nodes":[],"categories_segments":[],"categories_sizes":[],"default_left":[0,0,0,0,0,0,0,0,0,0,0,0,0,0,0,0,0,0,0,0,0,0,0,0,0,0,0,0,0,0,0,0,0,0,0,0,0,0,0,0,0,0,0,0,0,0,0,0,0,0,0,0,0,0,0,0,0,0,0,0,0,0,0,0,0,0,0,0,0,0,0,0,0,0,0,0,0,0,0,0,0,0,0,0,0,0,0,0,0,0,0,0,0,0,0,0,0],"id":1,"left_children":[1,3,5,7,9,11,13,15,-1,17,19,21,23,25,27,-1,29,31,33,35,37,39,41,43,45,47,49,51,53,55,-1,57,59,61,63,65,67,69,71,73,-1,75,77,79,81,83,85,87,-1,89,91,93,-1,95,-1,-1,-1,-1,-1,-1,-1,-1,-1,-1,-1,-1,-1,-1,-1,-1,-1,-1,-1,-1,-1,-1,-1,-1,-1,-1,-1,-1,-1,-1,-1,-1,-1,-1,-1,-1,-1,-1,-1,-1,-1,-1,-1],"loss_changes":[2.1597988E3,8.078539E2,5.50392E2,6.368225E1,3.2868994E2,1.344995E2,1.6302844E2,6.471716E1,0E0,6.471759E1,1.4006961E2,3.5477478E1,5.7072983E1,3.480829E1,2.1864685E1,0E0,4.6363037E1,3.5787476E1,2.5851013E1,7.081018E1,4.0660698E1,6.757576E0,3.2094494E1,2.438917E1,1.5458458E1,1.391362E1,7.6068726E0,5.1897583E0,3.9368896E0,1.3484985E1,0E0,2.4590912E0,2.3584381E1,5.6923523E0,5.160965E1,5.4881744E0,3.1935852E1,3.0183548E1,9.945605E0,1.4396267E1,0E0,2.5614426E1,8.497943E0,6.2814445E0,7.6710052E0,1.0497307E1,1.5005493E0,1.3749908E1,0E0,2.8237152E0,1.7142029E0,3.7071228E-1,0E0,6.3949585E-1,0E0,0E0,0E0,0E0,0E0,0E0,0E0,0E0,0E0,0E0,0E0,0E0,0E0,0E0,0E0,0E0,0E0,0E0,0E0,0E0,0E0,0E0,0E0,0E0,0E0,0E0,0E0,0E0,0E0,0E0,0E0,0E0,0E0,0E0,0E0,0E0,0E0,0E0,0E0,0E0,0E0,0E0,0E0],"parents":[2147483647,0,0,1,1,2,2,3,3,4,4,5,5,6,6,7,7,9,9,10,10,11,11,12,12,13,13,14,14,16,16,17,17,18,18,19,19,20,20,21,21,22,22,23,23,24,24,25,25,26,26,27,27,28,28,29,29,31,31,32,32,33,33,34,34,35,35,36,36,37,37,38,38,39,39,41,41,42,42,43,43,44,44,45,45,46,46,47,47,49,49,50,50,51,51,53,53],"right_children":[2,4,6,8,10,12,14,16,-1,18,20,22,24,26,28,-1,30,32,34,36,38,40,42,44,46,48,50,52,54,56,-1,58,60,62,64,66,68,70,72,74,-1,76,78,80,82,84,86,88,-1,90,92,94,-1,96,-1,-1,-1,-1,-1,-1,-1,-1,-1,-1,-1,-1,-1,-1,-1,-1,-1,-1,-1,-1,-1,-1,-1,-1,-1,-1,-1,-1,-1,-1,-1,-1,-1,-1,-1,-1,-1,-1,-1,-1,-1,-1,-1],"split_conditions":[2.6E2,1E5,3.25E7,9.67299E0,4.4E1,1E7,1.59E3,1.973E3,-6.261511E-2,1.1E1,1.05E7,8E5,7.66E2,8.36E2,3.095E3,-8.8156365E-2,1E0,1.996E3,2.005E3,1.993E3,2.6E7,1E0,1.135E3,2.007E3,1.791E3,7.7E0,7.4E7,7.9E7,9.2E7,1E0,-1.6684027E-1,5.5E6,1E0,3.8E1,9.5E6,7.5E6,3.2E6,3.476966E0,1.38E2,6.8E0,-2.5966498E-1,1.995E3,7.6E0,6.2E0,4.31E2,2.2E7,8.2E0,4.31E2,-1.9440393E-1,7.2E0,6.9E0,1E0,1.8923607E-1,1E0,2.515223E-1,-1.1382196E0,-2.838224E-1,-7.75249E-2,-2.3104656E-1,-3.749587E-1,-7.163898E-1,-1.9743463E-1,-7.730637E-2,-3.756306E-1,-1.13570474E-1,-9.01448E-2,-1.1390051E-2,-2.815176E-1,-1.6682462E-1,-2.79937E-1,-7.873099E-2,-4.77301E-2,1.9265732E-3,5.4617595E-2,-1.8037088E-1,-9.881064E-3,-1.0118113E-1,5.5937927E-2,-4.6886396E-2,6.635999E-2,1.996267E-2,-4.842044E-2,-1.5397961E-3,3.0736743E-2,8.879855E-2,1.2178214E-1,4.3028604E-2,4.5966804E-2,9.2291E-2,1.2067088E-1,7.267549E-2,1.664926E-1,9.312276E-2,3.3334445E-2,1.4421196E-1,1.9250508E-1,4.461756E-2],"split_indices":[4,0,0,1,4,0,4,5,0,4,0,0,4,4,4,0,13,5,5,5,0,14,4,5,4,3,0,0,0,12,0,0,11,4,0,0,0,1,4,3,0,5,3,3,4,0,3,4,0,3,3,31,0,24,0,0,0,0,0,0,0,0,0,0,0,0,0,0,0,0,0,0,0,0,0,0,0,0,0,0,0,0,0,0,0,0,0,0,0,0,0,0,0,0,0,0,0],"split_type":[0,0,0,0,0,0,0,0,0,0,0,0,0,0,0,0,0,0,0,0,0,0,0,0,0,0,0,0,0,0,0,0,0,0,0,0,0,0,0,0,0,0,0,0,0,0,0,0,0,0,0,0,0,0,0,0,0,0,0,0,0,0,0,0,0,0,0,0,0,0,0,0,0,0,0,0,0,0,0,0,0,0,0,0,0,0,0,0,0,0,0,0,0,0,0,0,0],"sum_hessian":[2.06E3,6.83E2,1.377E3,1.3E1,6.7E2,6.6E2,7.17E2,1.2E1,1E0,1.46E2,5.24E2,1.99E2,4.61E2,4.62E2,2.55E2,1E0,1.1E1,2.8E1,1.18E2,1.81E2,3.43E2,2E1,1.79E2,2.7E2,1.91E2,2.85E2,1.77E2,1.49E2,1.06E2,1E1,1E0,8E0,2E1,8E1,3.8E1,6.3E1,1.18E2,1.79E2,1.64E2,1.2E1,8E0,1.39E2,4E1,1.31E2,1.39E2,1.29E2,6.2E1,2.84E2,1E0,1.1E2,6.7E1,7.1E1,7.8E1,3.6E1,7E1,9E0,1E0,3E0,5E0,1.6E1,4E0,7.4E1,6E0,2.6E1,1.2E1,5.2E1,1.1E1,4.2E1,7.6E1,7E0,1.72E2,6.9E1,9.5E1,3E0,9E0,4.6E1,9.3E1,3E1,1E1,4.4E1,8.7E1,6.6E1,7.3E1,7.4E1,5.5E1,5.8E1,4E0,1.05E2,1.79E2,8.9E1,2.1E1,5.9E1,8E0,1E0,7E1,3.5E1,1E0],"tree_param":{"num_deleted":"0","num_feature":"54","num_nodes":"97","size_leaf_vector":"1"}},{"base_weights":[1.1300378E-3,-1.311578E0,6.4304733E-1,-1.0183202E1,-1.2020559E0,1.1664837E-1,1.2060133E0,-1.1185093E0,-1.5849829E-1,-2.5121686E0,-8.572325E-1,-4.7047833E-1,3.6114877E-1,8.774876E-1,1.8531482E0,-3.2139437E0,-1.9401345E0,-1.2009473E0,-2.209067E-1,1.2882532E-2,-7.8514874E-1,8.5684516E-2,7.901511E-1,6.66995E-1,1.1523879E0,1.404234E0,2.0695796E0,-2.0528913E0,-3.930954E0,-2.0641346E0,-3.875423E-1,-2.2261355E0,-1.0645788E0,-5.049962E-1,5.2110325E-3,-3.9349914E-1,7.831622E-1,1.5367249E-1,-1.0075545E0,2.9642135E-1,-2.1604815E-1,6.066425E-1,1.1396356E0,6.8443763E-1,-1.8468371E-1,1.0017098E0,1.3833271E0,1.1525798E0,1.6069769E0,1.7744873E-1,2.217084E-1,-3.974453E-1,-1.7129968E-1,-4.159324E-1,-1.0641666E-1,-2.3080872E-1,-9.832423E-2,-7.249662E-2,8.185005E-2,-3.4250855E-1,-1.632795E-1,-1.02294125E-1,-4.873477E-1,-3.6235284E-2,-7.982915E-2,5.4289997E-3,-1.2353356E-1,4.983157E-2,-7.403877E-2,4.6929013E-2,1.2541084E-1,4.2626668E-2,-1.3840137E-1,-2.4488905E-1,-8.064162E-2,1.0129087E-2,4.8196696E-2,-1.0090079E-2,-1.2091829E-1,4.8453074E-2,9.1203064E-2,1.17221035E-1,3.416729E-2,7.433497E-2,7.0681865E-3,1.01666026E-1,-3.737402E-2,1.3968094E-1,2.1304417E-2,1.17072165E-1,2.4973584E-2,1.6349135E-1,2.7269363E-2],"categories":[],"categories_nodes":[],"categories_segments":[],"categories_sizes":[],"default_left":[0,0,0,0,0,0,0,0,0,0,0,0,0,0,0,0,0,0,0,0,0,0,0,0,0,0,0,0,0,0,0,0,0,0,0,0,0,0,0,0,0,0,0,0,0,0,0,0,0,0,0,0,0,0,0,0,0,0,0,0,0,0,0,0,0,0,0,0,0,0,0,0,0,0,0,0,0,0,0,0,0,0,0,0,0,0,0,0,0,0,0,0,0],"id":2,"left_children":[1,3,5,7,9,11,13,-1,-1,15,17,19,21,23,25,27,29,31,33,35,37,39,41,43,45,47,49,51,53,55,57,59,61,63,65,67,69,71,73,75,77,79,81,83,-1,85,87,89,91,-1,-1,-1,-1,-1,-1,-1,-1,-1,-1,-1,-1,-1,-1,-1,-1,-1,-1,-1,-1,-1,-1,-1,-1,-1,-1,-1,-1,-1,-1,-1,-1,-1,-1,-1,-1,-1,-1,-1,-1,-1,-1,-1,-1],"loss_changes":[1.711423E3,6.3584216E2,4.040735E2,5.1187622E1,2.9600653E2,1.01518135E2,1.3847766E2,0E0,0E0,4.8761658E1,1.1434119E2,3.1646782E1,5.8901527E1,2.463388E1,1.8565979E1,4.1879395E1,1.4216766E1,4.5163208E1,1.1886602E1,2.628946E1,2.6463531E1,1.945783E1,1.1814667E1,1.2269875E1,5.191025E0,1.974411E0,2.4643555E0,9.519974E0,1.9142517E1,1.6716034E1,3.442019E0,2.215158E1,4.2909912E1,3.1413403E0,6.39908E0,1.7383762E1,3.6981468E0,1.1069066E1,2.759578E1,6.4681883E0,1.4286957E1,4.405987E0,1.3150558E0,8.98687E0,0E0,2.80645E0,8.384552E-1,3.1366348E-1,1.0079117E0,0E0,0E0,0E0,0E0,0E0,0E0,0E0,0E0,0E0,0E0,0E0,0E0,0E0,0E0,0E0,0E0,0E0,0E0,0E0,0E0,0E0,0E0,0E0,0E0,0E0,0E0,0E0,0E0,0E0,0E0,0E0,0E0,0E0,0E0,0E0,0E0,0E0,0E0,0E0,0E0,0E0,0E0,0E0,0E0],"parents":[2147483647,0,0,1,1,2,2,3,3,4,4,5,5,6,6,9,9,10,10,11,11,12,12,13,13,14,14,15,15,16,16,17,17,18,18,19,19,20,20,21,21,22,22,23,23,24,24,25,25,26,26,27,27,28,28,29,29,30,30,31,31,32,32,33,33,34,34,35,35,36,36,37,37,38,38,39,39,40,40,41,41,42,42,43,43,45,45,46,46,47,47,48,48],"right_children":[2,4,6,8,10,12,14,-1,-1,16,18,20,22,24,26,28,30,32,34,36,38,40,42,44,46,48,50,52,54,56,58,60,62,64,66,68,70,72,74,76,78,80,82,84,-1,86,88,90,92,-1,-1,-1,-1,-1,-1,-1,-1,-1,-1,-1,-1,-1,-1,-1,-1,-1,-1,-1,-1,-1,-1,-1,-1,-1,-1,-1,-1,-1,-1,-1,-1,-1,-1,-1,-1,-1,-1,-1,-1,-1,-1,-1,-1],"split_conditions":[2.6E2,2.5E2,3.7E7,7E0,4.4E1,1E7,1.791E3,-1.1185093E0,-1.5849829E-1,1E2,2.4E7,1.995E3,8.48E2,8.31E2,7.9E7,2.001E3,3.1E7,1.644736E6,1.38E2,6E6,6.2E0,2.009E3,1.832E3,7.6E0,7.9E7,2.961E3,2.892E3,3.1E0,1.7E7,1E0,2.009E3,6.3E0,1E0,1.18E2,1E0,7E0,5.84E2,1E2,3.41E2,2.1E7,1.25E2,1E0,3E1,2.012E3,-1.8468371E-1,7.6E0,3.1E1,1E0,8.3E0,1.7744873E-1,2.217084E-1,-3.974453E-1,-1.7129968E-1,-4.159324E-1,-1.0641666E-1,-2.3080872E-1,-9.832423E-2,-7.249662E-2,8.185005E-2,-3.4250855E-1,-1.632795E-1,-1.02294125E-1,-4.873477E-1,-3.6235284E-2,-7.982915E-2,5.4289997E-3,-1.2353356E-1,4.983157E-2,-7.403877E-2,4.6929013E-2,1.2541084E-1,4.2626668E-2,-1.3840137E-1,-2.4488905E-1,-8.064162E-2,1.0129087E-2,4.8196696E-2,-1.0090079E-2,-1.2091829E-1,4.8453074E-2,9.1203064E-2,1.17221035E-1,3.416729E-2,7.433497E-2,7.0681865E-3,1.01666026E-1,-3.737402E-2,1.3968094E-1,2.1304417E-2,1.17072165E-1,2.4973584E-2,1.6349135E-1,2.7269363E-2],"split_indices":[4,0,0,3,4,0,4,0,0,2,0,5,4,4,0,5,0,0,4,0,3,5,4,3,0,4,4,3,0,11,5,3,21,2,24,3,4,2,4,0,2,11,7,5,0,3,7,12,3,0,0,0,0,0,0,0,0,0,0,0,0,0,0,0,0,0,0,0,0,0,0,0,0,0,0,0,0,0,0,0,0,0,0,0,0,0,0,0,0,0,0,0,0],"split_type":[0,0,0,0,0,0,0,0,0,0,0,0,0,0,0,0,0,0,0,0,0,0,0,0,0,0,0,0,0,0,0,0,0,0,0,0,0,0,0,0,0,0,0,0,0,0,0,0,0,0,0,0,0,0,0,0,0,0,0,0,0,0,0,0,0,0,0,0,0,0,0,0,0,0,0,0,0,0,0,0,0,0,0,0,0,0,0,0,0,0,0,0,0],"sum_hessian":[2.029E3,6.66E2,1.363E3,7E0,6.59E2,7.05E2,6.58E2,6E0,1E0,1.36E2,5.23E2,2.07E2,4.98E2,4.38E2,2.2E2,5.9E1,7.7E1,3.39E2,1.84E2,8.2E1,1.25E2,3.04E2,1.94E2,2.5E2,1.88E2,7.4E1,1.46E2,2.4E1,3.5E1,7.1E1,6E0,3.8E1,3.01E2,8.1E1,1.03E2,5.4E1,2.8E1,2.4E1,1.01E2,1.79E2,1.25E2,1.29E2,6.5E1,2.49E2,1E0,1.17E2,7.1E1,3.6E1,3.8E1,5.3E1,9.3E1,2E0,2.2E1,3.2E1,3E0,5.7E1,1.4E1,5E0,1E0,1.1E1,2.7E1,2.99E2,2E0,5.6E1,2.5E1,1E2,3E0,1.5E1,3.9E1,1.8E1,1E1,2.1E1,3E0,1.1E1,9E1,8.8E1,9.1E1,1.13E2,1.2E1,9.4E1,3.5E1,6.2E1,3E0,2.27E2,2.2E1,1.16E2,1E0,7E1,1E0,3.5E1,1E0,3.7E1,1E0],"tree_param":{"num_deleted":"0","num_feature":"54","num_nodes":"93","size_leaf_vector":"1"}},{"base_weights":[-1.1705567E-2,-1.168532E0,5.417808E-1,-7.8315187E0,-1.0160233E0,-6.5417364E-3,9.755886E-1,-8.928395E0,-4.6788058E-1,-1.6358837E0,-5.8332413E-1,-4.7961432E-1,2.5460115E-1,5.584648E-1,1.3270847E0,-9.82055E0,-4.465909E-1,-3.5589219E-3,-6.6623166E-2,-8.442534E-1,-2.0698488E0,-2.9715803E0,-5.194446E-1,-7.4138814E-1,1.0313963E-1,-1.7333078E-1,4.8219132E-1,5.697009E-1,-1.7544957E-1,1.0520264E0,1.7383378E0,-1.0302181E0,-2.7429342E-1,-9.2829686E-1,-1.1841392E-2,-2.9361684E0,-1.6694297E0,-1.7488933E0,-5.2415524E0,-7.584677E-1,-1.0382707E-1,-9.198171E-1,1.319561E-1,4.4113958E-1,-7.0653355E-1,8.194795E-2,-3.327216E-1,3.613171E-1,1.0624166E0,1.886171E-1,6.4030147E-1,9.9386847E-1,1.514944E-1,1.4908059E0,2.0545505E-1,-1.2734142E-1,-7.490068E-2,-2.569151E-2,2.8461535E-2,-3.1248954E-1,-1.4603774E-1,-1.9621502E-1,-8.205122E-2,-1.9988613E-1,4.415512E-5,-6.7692655E-1,-1.09306335E-1,-7.023274E-2,-3.290279E-1,-3.0671244E-2,2.9565323E-2,-2.736865E-2,-1.16967596E-1,6.943399E-2,-8.9353025E-2,7.147828E-2,-8.848775E-2,-1.4392637E-1,-1.4491016E-2,2.6978452E-2,-2.6025524E-2,-6.590729E-2,-6.618229E-3,5.2946426E-2,1.8522726E-2,1.1264503E-1,-2.0953942E-2,3.5820227E-2,-2.7893156E-2,5.2672036E-2,8.935538E-2,1.2000163E-1,8.695971E-2,1.1389339E-1,1.570939E-1],"categories":[],"categories_nodes":[],"categories_segments":[],"categories_sizes":[],"default_left":[0,0,0,0,0,0,0,0,0,0,0,0,0,0,0,0,0,0,0,0,0,0,0,0,0,0,0,0,0,0,0,0,0,0,0,0,0,0,0,0,0,0,0,0,0,0,0,0,0,0,0,0,0,0,0,0,0,0,0,0,0,0,0,0,0,0,0,0,0,0,0,0,0,0,0,0,0,0,0,0,0,0,0,0,0,0,0,0,0,0,0,0,0,0,0],"id":3,"left_children":[1,3,5,7,9,11,13,15,17,19,21,23,25,27,29,31,-1,-1,-1,33,35,37,39,41,43,45,47,49,-1,51,53,-1,-1,55,57,59,61,63,65,67,69,71,73,75,77,79,81,83,85,87,89,91,-1,93,-1,-1,-1,-1,-1,-1,-1,-1,-1,-1,-1,-1,-1,-1,-1,-1,-1,-1,-1,-1,-1,-1,-1,-1,-1,-1,-1,-1,-1,-1,-1,-1,-1,-1,-1,-1,-1,-1,-1,-1,-1],"loss_changes":[1.3394747E3,6.799861E2,3.3658768E2,1.1697766E2,1.7687097E2,7.745787E1,1.1508655E2,7.8981934E0,2.335257E-1,9.169531E1,5.8260284E1,3.4095047E1,3.943039E1,1.0433395E1,4.6586E1,5.829895E0,0E0,0E0,0E0,6.8449707E0,5.580426E1,1.8587746E1,3.7969307E1,2.4119186E1,1.9468546E1,5.7644253E0,1.8131573E1,9.618729E0,0E0,5.467224E0,1.0243408E1,0E0,0E0,4.553177E0,7.9965943E-1,1.0476593E1,2.8706512E1,3.4991055E0,1.1613861E1,3.2228333E1,1.1518549E1,2.0344368E1,1.619177E1,1.8775276E1,8.43332E0,3.6055176E0,7.5241156E0,6.415905E0,3.9012032E0,4.6986938E0,8.302574E0,4.9255066E0,0E0,1.0022583E0,0E0,0E0,0E0,0E0,0E0,0E0,0E0,0E0,0E0,0E0,0E0,0E0,0E0,0E0,0E0,0E0,0E0,0E0,0E0,0E0,0E0,0E0,0E0,0E0,0E0,0E0,0E0,0E0,0E0,0E0,0E0,0E0,0E0,0E0,0E0,0E0,0E0,0E0,0E0,0E0,0E0],"parents":[2147483647,0,0,1,1,2,2,3,3,4,4,5,5,6,6,7,7,8,8,9,9,10,10,11,11,12,12,13,13,14,14,15,15,19,19,20,20,21,21,22,22,23,23,24,24,25,25,26,26,27,27,29,29,30,30,33,33,34,34,35,35,36,36,37,37,38,38,39,39,40,40,41,41,42,42,43,43,44,44,45,45,46,46,47,47,48,48,49,49,50,50,51,51,53,53],"right_children":[2,4,6,8,10,12,14,16,18,20,22,24,26,28,30,32,-1,-1,-1,34,36,38,40,42,44,46,48,50,-1,52,54,-1,-1,56,58,60,62,64,66,68,70,72,74,76,78,80,82,84,86,88,90,92,-1,94,-1,-1,-1,-1,-1,-1,-1,-1,-1,-1,-1,-1,-1,-1,-1,-1,-1,-1,-1,-1,-1,-1,-1,-1,-1,-1,-1,-1,-1,-1,-1,-1,-1,-1,-1,-1,-1,-1,-1,-1,-1],"split_conditions":[1.3080725E1,1E5,3E7,1E0,1.05E7,1E7,3.2690037E1,7E0,2.5E2,1.997E3,1.647335E0,1.09E2,2.0786615E1,7.8E0,9.2E7,2.5E2,-4.465909E-1,-3.5589219E-3,-6.6623166E-2,7.5E6,2.3E6,1E0,3.2E7,4.4906918E1,7.6E0,2.006E3,5.3978603E1,1.567747E1,-1.7544957E-1,7.660323E1,6.81596E1,-1.0302181E0,-2.7429342E-1,1.2E1,1.991E3,9.358197E0,8.9876E0,1.2E1,1.7E7,1E0,5.8E7,1.99E3,7.4E0,2.01E3,1.969E3,6.8E0,1.2E1,2.008E3,3E1,2.3E1,6.1E7,2.005E3,1.514944E-1,1.1E8,2.0545505E-1,-1.2734142E-1,-7.490068E-2,-2.569151E-2,2.8461535E-2,-3.1248954E-1,-1.4603774E-1,-1.9621502E-1,-8.205122E-2,-1.9988613E-1,4.415512E-5,-6.7692655E-1,-1.09306335E-1,-7.023274E-2,-3.290279E-1,-3.0671244E-2,2.9565323E-2,-2.736865E-2,-1.16967596E-1,6.943399E-2,-8.9353025E-2,7.147828E-2,-8.848775E-2,-1.4392637E-1,-1.4491016E-2,2.6978452E-2,-2.6025524E-2,-6.590729E-2,-6.618229E-3,5.2946426E-2,1.8522726E-2,1.1264503E-1,-2.0953942E-2,3.5820227E-2,-2.7893156E-2,5.2672036E-2,8.935538E-2,1.2000163E-1,8.695971E-2,1.1389339E-1,1.570939E-1],"split_indices":[1,0,0,19,0,0,1,3,0,5,1,2,1,3,0,0,0,0,0,0,0,11,0,1,3,5,1,1,0,1,1,0,0,7,5,1,1,6,0,21,0,5,3,5,5,3,7,5,7,7,0,5,0,0,0,0,0,0,0,0,0,0,0,0,0,0,0,0,0,0,0,0,0,0,0,0,0,0,0,0,0,0,0,0,0,0,0,0,0,0,0,0,0,0,0],"split_type":[0,0,0,0,0,0,0,0,0,0,0,0,0,0,0,0,0,0,0,0,0,0,0,0,0,0,0,0,0,0,0,0,0,0,0,0,0,0,0,0,0,0,0,0,0,0,0,0,0,0,0,0,0,0,0,0,0,0,0,0,0,0,0,0,0,0,0,0,0,0,0,0,0,0,0,0,0,0,0,0,0,0,0,0,0,0,0,0,0,0,0,0,0,0,0],"sum_hessian":[2.09E3,6.76E2,1.414E3,1.4E1,6.62E2,6.25E2,7.89E2,1.2E1,2E0,2.71E2,3.91E2,2.22E2,4.03E2,3.62E2,4.27E2,9E0,3E0,1E0,1E0,9.7E1,1.74E2,9E0,3.82E2,1.53E2,6.9E1,1.4E2,2.63E2,3.61E2,1E0,2.58E2,1.69E2,8E0,1E0,8.8E1,9E0,5.3E1,1.21E2,7E0,2E0,2.42E2,1.4E2,1.27E2,2.6E1,4.9E1,2E1,5.4E1,8.6E1,2.19E2,4.4E1,5.7E1,3.04E2,2.32E2,2.6E1,9.8E1,7.1E1,2.8E1,6E1,5E0,4E0,4.6E1,7E0,8.9E1,3.2E1,6E0,1E0,1E0,1E0,2.38E2,4E0,9.3E1,4.7E1,3.6E1,9.1E1,1.7E1,9E0,4.1E1,8E0,8E0,1.2E1,3.5E1,1.9E1,3.8E1,4.8E1,1.11E2,1.08E2,4.2E1,2E0,4.2E1,1.5E1,2.12E2,9.2E1,8.4E1,1.48E2,2.1E1,7.7E1],"tree_param":{"num_deleted":"0","num_feature":"54","num_nodes":"95","size_leaf_vector":"1"}},{"base_weights":[1.4130782E-2,-9.994901E-1,5.7826203E-1,-6.7050195E0,-9.119072E-1,1.1779271E-1,1.037167E0,-8.046862E0,-4.444863E-1,-1.5429369E0,-4.2687744E-1,-4.1605932E-1,3.3153552E-1,7.89234E-1,1.5807234E0,-8.73211E0,-1.2824383E-1,-3.3809661E-3,-6.329198E-2,-3.009592E0,-1.3898954E0,-1.8446667E0,-3.3853433E-1,-7.82571E-1,3.6263842E-2,2.0091219E-1,8.79094E-1,6.011077E-1,9.8307514E-1,1.4124985E0,1.9264994E0,-9.296303E-1,-2.391378E-1,-1.6598346E0,-4.00253E0,-1.34538E0,-5.170405E0,4.6534635E-2,-1.9653345E0,-3.6851501E0,-3.030692E-1,-1.5770218E0,-6.111769E-1,-5.736046E-1,4.0828967E-1,3.8984403E-2,3.2016668E-1,9.064258E-1,-7.903814E-2,6.179225E-1,-1.666771E-1,7.458227E-1,1.0540506E0,9.696348E-1,1.521492E0,2.2867013E-2,1.949455E-1,-1.999854E-1,-3.098228E-2,-5.4299575E-1,-1.8963586E-1,-1.7816353E-1,-9.598779E-2,-6.58132E-1,-1.1742868E-1,-1.0734326E-1,-2.2169803E-1,-2.3747317E-2,-7.0140904E-1,-5.900488E-2,-7.3145344E-3,-4.226328E-2,-2.2732118E-1,-1.3112962E-1,-4.124134E-2,5.4149546E-2,-9.520964E-2,-1.0971973E-1,5.506726E-2,-2.6931788E-3,4.6566766E-2,4.9925246E-3,4.300108E-2,8.30942E-2,1.5762663E-1,6.3909225E-2,-7.591124E-2,5.581851E-2,1.1005121E-1,1.06717244E-1,4.0759318E-2,1.0815354E-1,5.759294E-2,1.5369184E-1,4.4355456E-2],"categories":[],"categories_nodes":[],"categories_segments":[],"categories_sizes":[],"default_left":[0,0,0,0,0,0,0,0,0,0,0,0,0,0,0,0,0,0,0,0,0,0,0,0,0,0,0,0,0,0,0,0,0,0,0,0,0,0,0,0,0,0,0,0,0,0,0,0,0,0,0,0,0,0,0,0,0,0,0,0,0,0,0,0,0,0,0,0,0,0,0,0,0,0,0,0,0,0,0,0,0,0,0,0,0,0,0,0,0,0,0,0,0,0,0],"id":4,"left_children":[1,3,5,7,9,11,13,15,17,19,21,23,25,27,29,31,-1,-1,-1,33,35,37,39,41,43,45,47,49,51,53,55,-1,-1,57,59,61,63,-1,65,67,69,71,73,75,77,79,81,83,-1,85,-1,87,89,91,93,-1,-1,-1,-1,-1,-1,-1,-1,-1,-1,-1,-1,-1,-1,-1,-1,-1,-1,-1,-1,-1,-1,-1,-1,-1,-1,-1,-1,-1,-1,-1,-1,-1,-1,-1,-1,-1,-1,-1,-1],"loss_changes":[1.1802328E3,3.6266895E2,2.800771E2,8.883038E1,2.22159E2,7.579089E1,8.823682E1,3.051941E1,2.107569E-1,6.674603E1,5.110456E1,3.1526909E1,3.372572E1,1.6110779E1,9.31958E0,6.3882446E0,0E0,0E0,0E0,3.2222992E1,4.151172E1,7.6044235E0,4.5171505E1,1.3333412E1,1.9746462E1,7.4027977E0,4.868721E0,9.991379E0,2.9858093E0,5.4272156E0,2.0875854E0,0E0,0E0,5.8068237E0,3.780539E1,4.638861E1,9.186195E0,0E0,2.782425E0,4.424279E1,2.5492432E1,1.3505398E1,1.1705124E1,1.4443412E1,1.21794E1,4.6250963E0,6.538788E0,3.240799E0,0E0,7.306595E0,0E0,3.0461273E0,1.0070953E0,7.428436E-1,1.1973267E0,0E0,0E0,0E0,0E0,0E0,0E0,0E0,0E0,0E0,0E0,0E0,0E0,0E0,0E0,0E0,0E0,0E0,0E0,0E0,0E0,0E0,0E0,0E0,0E0,0E0,0E0,0E0,0E0,0E0,0E0,0E0,0E0,0E0,0E0,0E0,0E0,0E0,0E0,0E0,0E0],"parents":[2147483647,0,0,1,1,2,2,3,3,4,4,5,5,6,6,7,7,8,8,9,9,10,10,11,11,12,12,13,13,14,14,15,15,19,19,20,20,21,21,22,22,23,23,24,24,25,25,26,26,27,27,28,28,29,29,30,30,33,33,34,34,35,35,36,36,38,38,39,39,40,40,41,41,42,42,43,43,44,44,45,45,46,46,47,47,49,49,51,51,52,52,53,53,54,54],"right_children":[2,4,6,8,10,12,14,16,18,20,22,24,26,28,30,32,-1,-1,-1,34,36,38,40,42,44,46,48,50,52,54,56,-1,-1,58,60,62,64,-1,66,68,70,72,74,76,78,80,82,84,-1,86,-1,88,90,92,94,-1,-1,-1,-1,-1,-1,-1,-1,-1,-1,-1,-1,-1,-1,-1,-1,-1,-1,-1,-1,-1,-1,-1,-1,-1,-1,-1,-1,-1,-1,-1,-1,-1,-1,-1,-1,-1,-1,-1,-1],"split_conditions":[2.87E2,1E5,3.7E7,1E0,9.6E1,1E7,2.028E3,1E0,2.5E2,1.1E1,1.644736E6,2.7990284E1,1.59E3,8.31E2,4.47E3,1E0,-1.2824383E-1,-3.3809661E-3,-6.329198E-2,8E0,1E0,1.03E2,3.476966E0,3.5E2,7E0,2.2894897E1,3.6E7,1E0,5E0,6E7,4.16777E7,-9.296303E-1,-2.391378E-1,1.15641E0,1.7E1,8.5E6,1.25E7,4.6534635E-2,6E5,9E6,1.9E7,1E1,1.644736E6,3.338543E1,1E0,1.2E1,5E0,5.265E3,-7.903814E-2,4.0137264E1,-1.666771E-1,6.849E7,1E0,2.3E1,2.5E8,2.2867013E-2,1.949455E-1,-1.999854E-1,-3.098228E-2,-5.4299575E-1,-1.8963586E-1,-1.7816353E-1,-9.598779E-2,-6.58132E-1,-1.1742868E-1,-1.0734326E-1,-2.2169803E-1,-2.3747317E-2,-7.0140904E-1,-5.900488E-2,-7.3145344E-3,-4.226328E-2,-2.2732118E-1,-1.3112962E-1,-4.124134E-2,5.4149546E-2,-9.520964E-2,-1.0971973E-1,5.506726E-2,-2.6931788E-3,4.6566766E-2,4.9925246E-3,4.300108E-2,8.30942E-2,1.5762663E-1,6.3909225E-2,-7.591124E-2,5.581851E-2,1.1005121E-1,1.06717244E-1,4.0759318E-2,1.0815354E-1,5.759294E-2,1.5369184E-1,4.4355456E-2],"split_indices":[4,0,0,19,4,0,4,13,0,4,0,1,4,4,4,12,0,0,0,6,21,4,1,4,6,1,0,30,6,0,0,0,0,1,7,0,0,0,0,0,0,7,0,1,31,6,6,4,0,1,0,0,24,7,0,0,0,0,0,0,0,0,0,0,0,0,0,0,0,0,0,0,0,0,0,0,0,0,0,0,0,0,0,0,0,0,0,0,0,0,0,0,0,0,0],"split_type":[0,0,0,0,0,0,0,0,0,0,0,0,0,0,0,0,0,0,0,0,0,0,0,0,0,0,0,0,0,0,0,0,0,0,0,0,0,0,0,0,0,0,0,0,0,0,0,0,0,0,0,0,0,0,0,0,0,0,0,0,0,0,0,0,0,0,0,0,0,0,0,0,0,0,0,0,0,0,0,0,0,0,0,0,0,0,0,0,0,0,0,0,0,0,0],"sum_hessian":[2.062E3,7.37E2,1.325E3,1E1,7.27E2,6.62E2,6.63E2,8E0,2E0,3.15E2,4.12E2,1.89E2,4.73E2,4.57E2,2.06E2,7E0,1E0,1E0,1E0,2.8E1,2.87E2,2.3E1,3.89E2,1.04E2,8.5E1,3.83E2,9E1,2.34E2,2.23E2,1.42E2,6.4E1,6E0,1E0,1.3E1,1.5E1,2.85E2,2E0,1E0,2.2E1,3E0,3.86E2,1.7E1,8.7E1,3.2E1,5.3E1,1.63E2,2.2E2,8.9E1,1E0,2.33E2,1E0,5.4E1,1.69E2,3E1,1.12E2,1E0,6.3E1,1E1,3E0,8E0,7E0,1.32E2,1.53E2,1E0,1E0,6E0,1.6E1,2E0,1E0,1.71E2,2.15E2,7E0,1E1,1.8E1,6.9E1,8E0,2.4E1,4E0,4.9E1,1.42E2,2.1E1,6.4E1,1.56E2,8.2E1,7E0,2.3E2,3E0,3.7E1,1.7E1,1.65E2,4E0,2.2E1,8E0,1.1E2,2E0],"tree_param":{"num_deleted":"0","num_feature":"54","num_nodes":"95","size_leaf_vector":"1"}},{"base_weights":[-1.4608213E-2,-9.1689974E-1,5.167295E-1,-8.086697E0,-8.2172954E-1,3.5018846E-2,8.551326E-1,-8.7144816E-1,-1.2183161E-1,-1.6431924E0,-5.5596167E-1,-1.8755579E-1,4.3847016E-1,6.557238E-1,1.40518E0,-1.2472391E0,-2.1998718E0,-1.4258167E0,-4.2143023E-1,-6.134916E-1,7.9522416E-2,-7.427171E-1,4.80341E-1,4.8068175E-1,8.5622615E-1,1.1449933E0,1.5851041E0,-5.510078E-1,-1.4035708E0,-2.5444195E0,-1.5024932E-1,-1.0569274E0,-2.4962718E0,-6.2534714E-1,-8.041781E-2,-1.8979149E-1,-1.3532553E0,2.8919727E-1,-1.4906202E-1,-1.4845693E0,7.412758E-2,8.002821E-1,3.6093953E-1,4.9268025E-1,-1.5834323E-1,6.362912E-1,1.0101905E0,7.9508525E-1,1.2583183E0,1.0990379E0,1.6560357E0,-9.659085E-2,-3.3505082E-2,-1.6015524E-1,-9.5422246E-2,-3.136003E-1,-2.0415573E-1,-5.5670656E-2,3.4899235E-2,-1.3152139E-1,-6.2545925E-2,3.758615E-2,-2.8562793E-1,-3.148028E-2,-8.547813E-2,-3.382462E-2,2.521907E-3,-7.639301E-2,9.562903E-3,1.7785605E-2,-1.571035E-1,9.2876695E-2,2.18086E-2,-4.4193212E-2,4.088697E-3,4.7414113E-2,-2.0927823E-1,1.122637E-1,1.0849672E-2,-4.6616346E-2,3.8910802E-2,7.0639245E-2,3.5705786E-2,6.644027E-2,-9.2552565E-3,1.0353955E-1,2.2010168E-2,8.288213E-2,9.578705E-4,1.2788777E-1,4.1398432E-2,1.1404377E-1,1.976204E-2,1.463053E-1,1.8032078E-1],"categories":[],"categories_nodes":[],"categories_segments":[],"categories_sizes":[],"default_left":[0,0,0,0,0,0,0,0,0,0,0,0,0,0,0,0,0,0,0,0,0,0,0,0,0,0,0,0,0,0,0,0,0,0,0,0,0,0,0,0,0,0,0,0,0,0,0,0,0,0,0,0,0,0,0,0,0,0,0,0,0,0,0,0,0,0,0,0,0,0,0,0,0,0,0,0,0,0,0,0,0,0,0,0,0,0,0,0,0,0,0,0,0,0,0],"id":5,"left_children":[1,3,5,7,9,11,13,-1,-1,15,17,19,21,23,25,27,29,31,33,35,37,39,41,43,45,47,49,51,53,55,57,59,61,63,65,67,69,71,73,75,-1,77,79,81,-1,83,85,87,89,91,93,-1,-1,-1,-1,-1,-1,-1,-1,-1,-1,-1,-1,-1,-1,-1,-1,-1,-1,-1,-1,-1,-1,-1,-1,-1,-1,-1,-1,-1,-1,-1,-1,-1,-1,-1,-1,-1,-1,-1,-1,-1,-1,-1,-1],"loss_changes":[9.986294E2,5.201299E2,2.1367932E2,3.2501648E1,1.6566345E2,4.8752773E1,8.353546E1,0E0,0E0,3.825415E1,6.7038345E1,3.986415E1,9.902008E0,1.9488052E1,7.735077E0,1.1308182E1,5.328836E1,2.7767334E1,3.4857887E1,4.205729E1,1.0395645E1,8.806801E0,6.8548126E0,8.333832E0,8.262985E0,2.449379E0,2.248291E0,1.6475863E0,6.478409E0,1.2934174E1,2.6293309E0,5.752487E0,2.071936E1,2.2103233E1,5.1561704E0,1.4329824E1,1.6618217E1,4.93676E0,5.8036294E0,6.9488373E0,0E0,1.1028221E1,3.3965435E0,8.558968E0,0E0,2.3357582E0,2.8189697E0,6.280556E-1,5.8154297E-1,4.4635963E-1,2.303772E-1,0E0,0E0,0E0,0E0,0E0,0E0,0E0,0E0,0E0,0E0,0E0,0E0,0E0,0E0,0E0,0E0,0E0,0E0,0E0,0E0,0E0,0E0,0E0,0E0,0E0,0E0,0E0,0E0,0E0,0E0,0E0,0E0,0E0,0E0,0E0,0E0,0E0,0E0,0E0,0E0,0E0,0E0,0E0,0E0],"parents":[2147483647,0,0,1,1,2,2,3,3,4,4,5,5,6,6,9,9,10,10,11,11,12,12,13,13,14,14,15,15,16,16,17,17,18,18,19,19,20,20,21,21,22,22,23,23,24,24,25,25,26,26,27,27,28,28,29,29,30,30,31,31,32,32,33,33,34,34,35,35,36,36,37,37,38,38,39,39,41,41,42,42,43,43,45,45,46,46,47,47,48,48,49,49,50,50],"right_children":[2,4,6,8,10,12,14,-1,-1,16,18,20,22,24,26,28,30,32,34,36,38,40,42,44,46,48,50,52,54,56,58,60,62,64,66,68,70,72,74,76,-1,78,80,82,-1,84,86,88,90,92,94,-1,-1,-1,-1,-1,-1,-1,-1,-1,-1,-1,-1,-1,-1,-1,-1,-1,-1,-1,-1,-1,-1,-1,-1,-1,-1,-1,-1,-1,-1,-1,-1,-1,-1,-1,-1,-1,-1,-1,-1,-1,-1,-1,-1],"split_conditions":[2.87E2,2.5E2,2.9E7,7.1E0,5.5E1,9.21E2,2.078E3,-8.7144816E-1,-1.2183161E-1,2.003E3,3.5E6,1E7,4.39E5,8.31E2,3.095E3,1.967E3,2E7,2.009E3,2.6E7,2.01E3,2.008E3,1E0,1.995E3,7.7E0,5.5E7,6E7,5.5E7,1.937E3,3.8E1,3.500159E6,2.009E3,1.1150261E1,2E0,2.003E3,8.386432E0,2.5E6,3E0,1.985E3,4.34E2,3.338543E1,7.412758E-2,7.8E0,1.8650747E1,2.003E3,-1.5834323E-1,1E0,7.4E0,5.6E7,2.5E8,5.3E7,8.468965E1,-9.659085E-2,-3.3505082E-2,-1.6015524E-1,-9.5422246E-2,-3.136003E-1,-2.0415573E-1,-5.5670656E-2,3.4899235E-2,-1.3152139E-1,-6.2545925E-2,3.758615E-2,-2.8562793E-1,-3.148028E-2,-8.547813E-2,-3.382462E-2,2.521907E-3,-7.639301E-2,9.562903E-3,1.7785605E-2,-1.571035E-1,9.2876695E-2,2.18086E-2,-4.4193212E-2,4.088697E-3,4.7414113E-2,-2.0927823E-1,1.122637E-1,1.0849672E-2,-4.6616346E-2,3.8910802E-2,7.0639245E-2,3.5705786E-2,6.644027E-2,-9.2552565E-3,1.0353955E-1,2.2010168E-2,8.288213E-2,9.578705E-4,1.2788777E-1,4.1398432E-2,1.1404377E-1,1.976204E-2,1.463053E-1,1.8032078E-1],"split_indices":[4,0,0,3,4,4,4,0,0,5,0,0,0,4,4,5,0,5,0,5,5,19,5,3,0,0,0,5,4,0,5,1,6,5,1,0,6,5,4,1,0,3,1,5,0,24,3,0,0,0,1,0,0,0,0,0,0,0,0,0,0,0,0,0,0,0,0,0,0,0,0,0,0,0,0,0,0,0,0,0,0,0,0,0,0,0,0,0,0,0,0,0,0,0,0],"split_type":[0,0,0,0,0,0,0,0,0,0,0,0,0,0,0,0,0,0,0,0,0,0,0,0,0,0,0,0,0,0,0,0,0,0,0,0,0,0,0,0,0,0,0,0,0,0,0,0,0,0,0,0,0,0,0,0,0,0,0,0,0,0,0,0,0,0,0,0,0,0,0,0,0,0,0,0,0,0,0,0,0,0,0,0,0,0,0,0,0,0,0,0,0,0,0],"sum_hessian":[2.081E3,7.71E2,1.31E3,9E0,7.62E2,5.41E2,7.69E2,8E0,1E0,1.85E2,5.77E2,3.49E2,1.92E2,5.66E2,2.03E2,1.1E2,7.5E1,7.6E1,5.01E2,1.34E2,2.15E2,6E0,1.86E2,3.04E2,2.62E2,8.6E1,1.17E2,2.1E1,8.9E1,6.4E1,1.1E1,5.8E1,1.8E1,3.13E2,1.88E2,8.6E1,4.8E1,1.12E2,1.03E2,4E0,2E0,4.9E1,1.37E2,3.03E2,1E0,1.1E2,1.52E2,2.3E1,6.3E1,1.7E1,1E2,6E0,1.5E1,6E1,2.9E1,2.7E1,3.7E1,6E0,5E0,3.5E1,2.3E1,2E0,1.6E1,1.34E2,1.79E2,5.4E1,1.34E2,2.8E1,5.8E1,6E0,4.2E1,1E1,1.02E2,4E1,6.3E1,1E0,3E0,3.3E1,1.6E1,4E0,1.33E2,1.16E2,1.87E2,1.06E2,4E0,1.47E2,5E0,2.2E1,1E0,6.1E1,2E0,1.6E1,1E0,4.8E1,5.2E1],"tree_param":{"num_deleted":"0","num_feature":"54","num_nodes":"95","size_leaf_vector":"1"}},{"base_weights":[-1.5859691E-2,-9.514912E-1,3.9275816E-1,-6.2927775E0,-8.283538E-1,-4.4560667E-2,7.357235E-1,-6.8389306E0,4.0360548E-2,-1.3693416E0,-5.1273435E-1,-5.637604E-1,1.0538023E-1,3.6481312E-1,1.0313063E0,-7.2159415E-1,-1.15740016E-1,-1.0130955E0,-1.8326678E0,-2.539399E-1,-8.32537E-1,-4.0769637E-1,-9.515313E-1,-6.2116534E-2,4.840459E-1,-1.3498092E0,3.8305378E-1,8.55366E-1,1.3307676E0,-1.394705E0,-6.86317E-1,-2.8684509E0,-1.5926558E0,-6.2436914E-1,-1.148879E-1,-2.2302313E0,-6.5696824E-1,-5.9197396E-1,3.400531E-1,3.6510772E-1,-1.345559E0,1.3761723E-1,-3.478194E-1,3.4962687E-1,7.4075717E-1,-4.150915E-2,-1.5230179E-1,2.1321248E-1,5.42449E-1,7.314425E-1,1.0430349E0,1.0554374E0,1.4355989E0,-5.66458E-2,-1.5941201E-1,-6.343087E-2,-2.1894537E-1,-2.0401216E-1,-6.053946E-1,-2.0293263E-1,-9.607654E-2,-3.385881E-2,-8.893379E-2,-1.6600959E-2,3.523878E-2,-1.2260323E-1,-5.689469E-1,-1.8581027E-1,-5.1600993E-2,-1.143088E-1,-3.988729E-2,-1.3608199E-3,8.131135E-2,8.867084E-2,-1.3041084E-2,-1.84396E-1,-1.1452103E-2,1.4389209E-3,5.5520814E-2,-2.4908204E-2,-1.3008426E-1,2.3604097E-2,6.1057877E-2,1.0681558E-1,4.336742E-2,2.5215304E-2,-2.4983337E-2,7.584476E-2,3.854274E-2,1.2176855E-1,6.782467E-2,1.05119266E-1,7.2838785E-3,1.3545816E-1,8.9707755E-2,2.3979092E-2,1.4439121E-1],"categories":[],"categories_nodes":[],"categories_segments":[],"categories_sizes":[],"default_left":[0,0,0,0,0,0,0,0,0,0,0,0,0,0,0,0,0,0,0,0,0,0,0,0,0,0,0,0,0,0,0,0,0,0,0,0,0,0,0,0,0,0,0,0,0,0,0,0,0,0,0,0,0,0,0,0,0,0,0,0,0,0,0,0,0,0,0,0,0,0,0,0,0,0,0,0,0,0,0,0,0,0,0,0,0,0,0,0,0,0,0,0,0,0,0,0,0],"id":6,"left_children":[1,3,5,7,9,11,13,15,-1,17,19,21,23,25,27,-1,-1,29,31,33,35,37,39,41,43,45,47,49,51,53,55,57,59,61,63,65,67,69,71,73,75,77,79,81,83,-1,-1,85,87,89,91,93,95,-1,-1,-1,-1,-1,-1,-1,-1,-1,-1,-1,-1,-1,-1,-1,-1,-1,-1,-1,-1,-1,-1,-1,-1,-1,-1,-1,-1,-1,-1,-1,-1,-1,-1,-1,-1,-1,-1,-1,-1,-1,-1,-1,-1],"loss_changes":[7.898557E2,4.078305E2,2.157115E2,5.396173E1,1.04306885E2,4.9337997E1,8.798935E1,1.9494263E1,0E0,3.5446472E1,3.2066216E1,8.205494E0,3.1235302E1,1.1745079E1,2.2465637E1,0E0,0E0,1.5254013E1,1.9545776E1,1.1105702E1,4.123291E1,1.4394032E1,2.1242962E1,1.9563927E1,4.9515495E0,1.5413284E-2,9.5219345E0,5.865204E0,3.2183533E0,8.841728E0,4.2398567E0,3.250609E1,2.0400436E1,4.166542E0,3.856679E0,5.902601E1,2.5453545E1,8.37697E0,3.524432E0,2.700265E0,1.8808899E1,1.0386709E1,1.2943943E1,2.8495646E0,4.664236E0,0E0,0E0,3.200436E0,5.914383E0,3.700676E0,8.019638E-1,1.1060867E0,8.069153E-1,0E0,0E0,0E0,0E0,0E0,0E0,0E0,0E0,0E0,0E0,0E0,0E0,0E0,0E0,0E0,0E0,0E0,0E0,0E0,0E0,0E0,0E0,0E0,0E0,0E0,0E0,0E0,0E0,0E0,0E0,0E0,0E0,0E0,0E0,0E0,0E0,0E0,0E0,0E0,0E0,0E0,0E0,0E0,0E0],"parents":[2147483647,0,0,1,1,2,2,3,3,4,4,5,5,6,6,7,7,9,9,10,10,11,11,12,12,13,13,14,14,17,17,18,18,19,19,20,20,21,21,22,22,23,23,24,24,25,25,26,26,27,27,28,28,29,29,30,30,31,31,32,32,33,33,34,34,35,35,36,36,37,37,38,38,39,39,40,40,41,41,42,42,43,43,44,44,47,47,48,48,49,49,50,50,51,51,52,52],"right_children":[2,4,6,8,10,12,14,16,-1,18,20,22,24,26,28,-1,-1,30,32,34,36,38,40,42,44,46,48,50,52,54,56,58,60,62,64,66,68,70,72,74,76,78,80,82,84,-1,-1,86,88,90,92,94,96,-1,-1,-1,-1,-1,-1,-1,-1,-1,-1,-1,-1,-1,-1,-1,-1,-1,-1,-1,-1,-1,-1,-1,-1,-1,-1,-1,-1,-1,-1,-1,-1,-1,-1,-1,-1,-1,-1,-1,-1,-1,-1,-1,-1],"split_conditions":[2.13E2,1E5,2.9E7,1E0,6.3E1,5.5E6,8.36E2,1E0,4.0360548E-2,2.003E3,2.004E3,2.011E3,9.21E2,1E0,2.428E3,-7.2159415E-1,-1.15740016E-1,2.9E1,1.1E1,8.5E6,5.411243E0,1E0,3E0,2.009E3,1.19E2,3.1E7,4.51E2,7.9E7,7.4E7,1.97E3,1E0,1E0,1.05E7,1.986E3,1.96E2,1.23E2,4.5E6,1E6,1.988E3,2.0239061E1,6.92E2,1.1E1,1E0,5.3213932E1,1.26E2,-4.150915E-2,-1.5230179E-1,2.2572323E1,2.003E3,1.996E3,1E0,1.09E2,3E0,-5.66458E-2,-1.5941201E-1,-6.343087E-2,-2.1894537E-1,-2.0401216E-1,-6.053946E-1,-2.0293263E-1,-9.607654E-2,-3.385881E-2,-8.893379E-2,-1.6600959E-2,3.523878E-2,-1.2260323E-1,-5.689469E-1,-1.8581027E-1,-5.1600993E-2,-1.143088E-1,-3.988729E-2,-1.3608199E-3,8.131135E-2,8.867084E-2,-1.3041084E-2,-1.84396E-1,-1.1452103E-2,1.4389209E-3,5.5520814E-2,-2.4908204E-2,-1.3008426E-1,2.3604097E-2,6.1057877E-2,1.0681558E-1,4.336742E-2,2.5215304E-2,-2.4983337E-2,7.584476E-2,3.854274E-2,1.2176855E-1,6.782467E-2,1.05119266E-1,7.2838785E-3,1.3545816E-1,8.9707755E-2,2.3979092E-2,1.4439121E-1],"split_indices":[4,0,0,19,4,0,4,13,0,5,5,5,4,31,4,0,0,4,4,0,1,19,6,5,2,0,4,0,0,5,32,11,0,5,4,4,0,0,5,1,4,6,12,1,2,0,0,1,5,5,23,2,6,0,0,0,0,0,0,0,0,0,0,0,0,0,0,0,0,0,0,0,0,0,0,0,0,0,0,0,0,0,0,0,0,0,0,0,0,0,0,0,0,0,0,0,0],"split_type":[0,0,0,0,0,0,0,0,0,0,0,0,0,0,0,0,0,0,0,0,0,0,0,0,0,0,0,0,0,0,0,0,0,0,0,0,0,0,0,0,0,0,0,0,0,0,0,0,0,0,0,0,0,0,0,0,0,0,0,0,0,0,0,0,0,0,0,0,0,0,0,0,0,0,0,0,0,0,0,0,0,0,0,0,0,0,0,0,0,0,0,0,0,0,0,0,0],"sum_hessian":[2.064E3,6.27E2,1.437E3,1.3E1,6.14E2,6.32E2,8.05E2,1.2E1,1E0,2.25E2,3.89E2,1.41E2,4.91E2,3.58E2,4.47E2,1.1E1,1E0,1.29E2,9.6E1,2.16E2,1.73E2,1.02E2,3.9E1,3.41E2,1.5E2,3E0,3.55E2,2.84E2,1.63E2,5.8E1,7.1E1,1.6E1,8E1,5.8E1,1.58E2,1.8E1,1.55E2,8.2E1,2E1,9E0,3E1,2.01E2,1.4E2,1E2,5E1,1E0,2E0,1.73E2,1.82E2,1.74E2,1.1E2,4.8E1,1.15E2,1.2E1,4.6E1,7E1,1E0,1.4E1,2E0,4.6E1,3.4E1,2.9E1,2.9E1,1.43E2,1.5E1,1.5E1,3E0,1.5E1,1.4E2,2E1,6.2E1,1.2E1,8E0,4E0,5E0,2.1E1,9E0,1.56E2,4.5E1,1.28E2,1.2E1,7.1E1,2.9E1,2.3E1,2.7E1,1.6E2,1.3E1,7.5E1,1.07E2,1.5E1,1.59E2,1.09E2,1E0,1.4E1,3.4E1,1E0,1.14E2],"tree_param":{"num_deleted":"0","num_feature":"54","num_nodes":"97","size_leaf_vector":"1"}},{"base_weights":[-1.3627428E-2,-7.0182806E-1,4.5333716E-1,-5.416085E0,-6.3274133E-1,2.5118613E-1,9.594348E-1,-5.556941E-2,-5.807421E0,-1.1651773E0,-2.8534704E-1,-1.06017105E-1,3.9412206E-1,7.574033E-1,1.2960271E0,-6.168257E0,-1.0995302E-1,-8.0252683E-1,-1.6685871E0,-7.6268536E-1,-9.914854E-2,-2.7157727E-1,4.2225653E-1,2.1901432E-1,5.7818377E-1,-1.4281102E-1,7.736809E-1,5.087328E-2,1.3105048E0,-6.443563E-1,-1.8452516E-1,-1.3724892E0,-5.6955254E-1,-2.2492297E0,-1.2079908E0,-3.8964117E-1,-1.5004835E0,-1.8128525E-1,1.1571386E-1,-1.9774102E-1,-1.6103903E0,-1.3419019E-1,4.7402418E-1,3.9934686E-1,-1.0224426E-1,4.8355016E-1,8.8165563E-1,3.533012E-1,8.2049215E-1,1.1706597E0,1.4404906E0,-4.770657E-2,-1.5608709E-1,-1.3030267E-1,-4.414934E-2,-1.7827688E-1,-3.137423E-1,-1.0626085E-1,-6.2012154E-1,-5.7471126E-2,-5.595785E-3,-1.20140605E-1,-3.343946E-1,-1.682618E-2,-1.7967157E-1,-3.677905E-2,2.3963828E-2,-6.6036396E-2,-7.7623376E-3,3.6976688E-2,-2.1516505E-1,5.678742E-2,-3.1767916E-2,2.9762402E-2,6.529198E-2,-1.5331887E-2,5.3336143E-2,6.7750715E-2,3.6653843E-2,6.780095E-2,1.0559694E-1,4.3124348E-2,-7.1968555E-2,7.655292E-2,1.1422738E-1,1.197057E-1,4.556365E-2,6.414345E-2,1.4845388E-1],"categories":[],"categories_nodes":[],"categories_segments":[],"categories_sizes":[],"default_left":[0,0,0,0,0,0,0,0,0,0,0,0,0,0,0,0,0,0,0,0,0,0,0,0,0,0,0,0,0,0,0,0,0,0,0,0,0,0,0,0,0,0,0,0,0,0,0,0,0,0,0,0,0,0,0,0,0,0,0,0,0,0,0,0,0,0,0,0,0,0,0,0,0,0,0,0,0,0,0,0,0,0,0,0,0,0,0,0,0],"id":7,"left_children":[1,3,5,7,9,11,13,-1,15,17,19,21,23,25,27,29,-1,31,33,35,37,39,41,43,45,-1,47,-1,49,-1,-1,51,53,55,57,59,61,63,65,67,69,-1,71,73,75,77,79,81,83,85,87,-1,-1,-1,-1,-1,-1,-1,-1,-1,-1,-1,-1,-1,-1,-1,-1,-1,-1,-1,-1,-1,-1,-1,-1,-1,-1,-1,-1,-1,-1,-1,-1,-1,-1,-1,-1,-1,-1],"loss_changes":[6.677939E2,2.7015488E2,1.2641649E2,1.9597382E1,1.5300372E2,4.5278442E1,2.3023193E1,0E0,1.1904358E1,5.835858E1,4.463086E1,2.2329788E1,2.0275352E1,9.038094E0,8.264618E-1,1.1505127E-2,0E0,2.471331E1,3.365509E1,3.822297E1,6.427234E0,1.8859032E1,6.2070007E0,1.892711E1,8.419022E0,0E0,4.0787506E0,0E0,6.404419E-1,0E0,0E0,8.532829E0,1.2386795E1,1.88508E1,5.0032814E1,5.834546E0,2.1895462E1,5.2308044E0,6.139854E0,1.0229038E1,1.1513411E1,0E0,4.638483E0,5.1966515E0,3.912445E0,5.1304398E0,1.8399239E0,2.317504E0,2.6450806E0,7.191925E-1,1.2299805E0,0E0,0E0,0E0,0E0,0E0,0E0,0E0,0E0,0E0,0E0,0E0,0E0,0E0,0E0,0E0,0E0,0E0,0E0,0E0,0E0,0E0,0E0,0E0,0E0,0E0,0E0,0E0,0E0,0E0,0E0,0E0,0E0,0E0,0E0,0E0,0E0,0E0,0E0],"parents":[2147483647,0,0,1,1,2,2,3,3,4,4,5,5,6,6,8,8,9,9,10,10,11,11,12,12,13,13,14,14,15,15,17,17,18,18,19,19,20,20,21,21,22,22,23,23,24,24,26,26,28,28,31,31,32,32,33,33,34,34,35,35,36,36,37,37,38,38,39,39,40,40,42,42,43,43,44,44,45,45,46,46,47,47,48,48,49,49,50,50],"right_children":[2,4,6,8,10,12,14,-1,16,18,20,22,24,26,28,30,-1,32,34,36,38,40,42,44,46,-1,48,-1,50,-1,-1,52,54,56,58,60,62,64,66,68,70,-1,72,74,76,78,80,82,84,86,88,-1,-1,-1,-1,-1,-1,-1,-1,-1,-1,-1,-1,-1,-1,-1,-1,-1,-1,-1,-1,-1,-1,-1,-1,-1,-1,-1,-1,-1,-1,-1,-1,-1,-1,-1,-1,-1,-1],"split_conditions":[3.2E2,1.1512936E1,1.7926384E1,1.973E3,9.6E1,1.644018E1,2.341E3,-5.556941E-2,1E0,2.003E3,1.6213406E1,4.107553E1,8.31E2,1.929E3,3E0,1E0,-1.0995302E-1,2.9E1,1.01E2,2.009E3,1.7622173E1,1E0,1.2992257E1,2.009E3,2.341E3,-1.4281102E-1,4.1E2,5.087328E-2,8.468965E1,-6.443563E-1,-1.8452516E-1,6E0,1.464842E1,9.7E1,9.358197E0,1.06E2,2.81E2,1E0,1.43E2,1.4731802E1,2.003E3,-1.3419019E-1,1.27E2,2.6516624E1,7.83E2,2.005E3,6.6976776E1,1E0,1.8792244E1,2.9E1,2.892E3,-4.770657E-2,-1.5608709E-1,-1.3030267E-1,-4.414934E-2,-1.7827688E-1,-3.137423E-1,-1.0626085E-1,-6.2012154E-1,-5.7471126E-2,-5.595785E-3,-1.20140605E-1,-3.343946E-1,-1.682618E-2,-1.7967157E-1,-3.677905E-2,2.3963828E-2,-6.6036396E-2,-7.7623376E-3,3.6976688E-2,-2.1516505E-1,5.678742E-2,-3.1767916E-2,2.9762402E-2,6.529198E-2,-1.5331887E-2,5.3336143E-2,6.7750715E-2,3.6653843E-2,6.780095E-2,1.0559694E-1,4.3124348E-2,-7.1968555E-2,7.655292E-2,1.1422738E-1,1.197057E-1,4.556365E-2,6.414345E-2,1.4845388E-1],"split_indices":[4,8,8,5,4,8,4,0,13,5,8,1,4,5,6,12,0,4,2,5,8,24,8,5,4,0,4,0,1,0,0,7,8,2,1,2,4,53,4,8,5,0,2,1,4,5,1,24,8,7,4,0,0,0,0,0,0,0,0,0,0,0,0,0,0,0,0,0,0,0,0,0,0,0,0,0,0,0,0,0,0,0,0,0,0,0,0,0,0],"split_type":[0,0,0,0,0,0,0,0,0,0,0,0,0,0,0,0,0,0,0,0,0,0,0,0,0,0,0,0,0,0,0,0,0,0,0,0,0,0,0,0,0,0,0,0,0,0,0,0,0,0,0,0,0,0,0,0,0,0,0,0,0,0,0,0,0,0,0,0,0,0,0,0,0,0,0,0,0,0,0,0,0,0,0,0,0,0,0,0,0],"sum_hessian":[2.076E3,8.39E2,1.237E3,1.1E1,8.28E2,8.85E2,3.52E2,1E0,1E1,3.26E2,5.02E2,2.53E2,6.32E2,2.22E2,1.3E2,9E0,1E0,1.91E2,1.35E2,1.4E2,3.62E2,1.93E2,6E1,3.25E2,3.07E2,1E0,2.21E2,3E0,1.27E2,8E0,1E0,5.4E1,1.37E2,5.8E1,7.7E1,9.4E1,4.6E1,2.62E2,1E2,1.84E2,9E0,1E0,5.9E1,2.08E2,1.17E2,2.36E2,7.1E1,2.3E1,1.98E2,6.6E1,6.1E1,1E1,4.4E1,1.9E1,1.18E2,4E1,1.8E1,7.6E1,1E0,6E1,3.4E1,4.1E1,5E0,2.61E2,1E0,2E1,8E1,3.7E1,1.47E2,2E0,7E0,5.3E1,6E0,1.5E2,5.8E1,1.09E2,8E0,8.7E1,1.49E2,3.5E1,3.6E1,2.2E1,1E0,1.72E2,2.6E1,6.3E1,3E0,4E0,5.7E1],"tree_param":{"num_deleted":"0","num_feature":"54","num_nodes":"89","size_leaf_vector":"1"}},{"base_weights":[-1.37609225E-2,-8.847507E-1,2.765779E-1,-4.992323E0,-7.8558946E-1,-3.4440856E-2,5.937161E-1,7.056036E-2,-5.574462E-1,-1.505906E0,-6.527916E-1,-6.9526523E-1,6.9899336E-2,2.986526E-1,8.2495517E-1,-2.1285462E-1,-1.715021E0,-3.7438494E-1,-9.1312736E-1,-8.559856E-1,2.7233082E-1,-1.5037231E-1,2.4511592E-1,3.0756402E-1,-1.3567047E-1,6.6072255E-1,1.0899206E0,-5.1318944E-1,1.7301178E-1,-2.3910372E0,-1.3544258E0,-9.4957286E-1,-2.8383744E-1,-8.6372197E-1,-5.8911544E-1,-6.10976E-1,-1.3183924E0,6.097501E-1,-5.9194165E-1,3.5079867E-3,-5.289228E-1,6.0096157E-1,1.4757025E-1,1.5917538E-1,4.223132E-1,6.9683516E-1,8.6540334E-2,7.985891E-1,1.1976357E0,-6.473398E-2,-2.5074173E-2,-4.990101E-4,3.5267703E-2,-1.0423797E-1,-2.7263847E-1,-1.4402883E-1,3.56363E-2,-4.1445643E-2,-1.7388932E-1,-3.9341103E-2,-6.5414156E-3,-1.3323383E-1,-5.5879813E-2,-5.1637918E-2,-1.5861039E-1,-2.1833968E-1,-5.723671E-2,8.011252E-2,-2.3141671E-2,1.7340565E-2,-8.266299E-2,3.246567E-2,-1.1440425E-2,-1.8722787E-2,-1.0077899E-1,2.6134063E-2,7.659324E-2,1.5349579E-3,4.343539E-2,2.148997E-2,-1.907109E-2,4.4576142E-2,-5.344223E-2,5.1993895E-2,7.791032E-2,1.9370198E-2,-8.14023E-2,8.213152E-2,-1.2340355E-2,5.326974E-2,1.2225642E-1],"categories":[],"categories_nodes":[],"categories_segments":[],"categories_sizes":[],"default_left":[0,0,0,0,0,0,0,0,0,0,0,0,0,0,0,0,0,0,0,0,0,0,0,0,0,0,0,0,0,0,0,0,0,0,0,0,0,0,0,0,0,0,0,0,0,0,0,0,0,0,0,0,0,0,0,0,0,0,0,0,0,0,0,0,0,0,0,0,0,0,0,0,0,0,0,0,0,0,0,0,0,0,0,0,0,0,0,0,0,0,0],"id":8,"left_children":[1,3,5,7,9,11,13,-1,-1,15,17,19,21,23,25,27,29,31,33,35,37,39,41,43,-1,45,47,49,51,53,55,57,59,61,-1,63,65,67,69,71,73,75,77,79,81,83,85,87,89,-1,-1,-1,-1,-1,-1,-1,-1,-1,-1,-1,-1,-1,-1,-1,-1,-1,-1,-1,-1,-1,-1,-1,-1,-1,-1,-1,-1,-1,-1,-1,-1,-1,-1,-1,-1,-1,-1,-1,-1,-1,-1],"loss_changes":[5.2295215E2,2.0665845E2,1.5300476E2,4.3737213E1,4.741913E1,5.410583E1,5.215442E1,0E0,0E0,2.0725876E1,3.075174E1,1.6872932E1,2.6204437E1,5.418062E0,1.799173E1,1.4794573E0,1.3093994E1,1.0615578E1,4.9264694E1,9.617546E0,5.0268917E0,1.7535545E1,1.3032148E1,5.6880646E0,0E0,5.4967422E0,4.1586456E0,8.413708E-2,1.9364443E-1,7.107994E0,7.270294E0,1.1105898E1,4.3301487E0,3.0691788E1,0E0,4.900095E0,1.8755066E1,2.117134E0,1.0414323E0,8.178624E0,1.4046814E1,4.3380623E0,1.1293115E1,2.9460626E0,4.5006332E0,3.2622375E0,1.7982774E0,1.0861549E0,1.2881317E0,0E0,0E0,0E0,0E0,0E0,0E0,0E0,0E0,0E0,0E0,0E0,0E0,0E0,0E0,0E0,0E0,0E0,0E0,0E0,0E0,0E0,0E0,0E0,0E0,0E0,0E0,0E0,0E0,0E0,0E0,0E0,0E0,0E0,0E0,0E0,0E0,0E0,0E0,0E0,0E0,0E0,0E0],"parents":[2147483647,0,0,1,1,2,2,3,3,4,4,5,5,6,6,9,9,10,10,11,11,12,12,13,13,14,14,15,15,16,16,17,17,18,18,19,19,20,20,21,21,22,22,23,23,25,25,26,26,27,27,28,28,29,29,30,30,31,31,32,32,33,33,35,35,36,36,37,37,38,38,39,39,40,40,41,41,42,42,43,43,44,44,45,45,46,46,47,47,48,48],"right_children":[2,4,6,8,10,12,14,-1,-1,16,18,20,22,24,26,28,30,32,34,36,38,40,42,44,-1,46,48,50,52,54,56,58,60,62,-1,64,66,68,70,72,74,76,78,80,82,84,86,88,90,-1,-1,-1,-1,-1,-1,-1,-1,-1,-1,-1,-1,-1,-1,-1,-1,-1,-1,-1,-1,-1,-1,-1,-1,-1,-1,-1,-1,-1,-1,-1,-1,-1,-1,-1,-1,-1,-1,-1,-1,-1,-1],"split_conditions":[1.75E2,1E5,3.25E7,5E0,2.4E1,3.5E6,8.36E2,7.056036E-2,-5.574462E-1,1.97E3,2.002E3,4.4906918E1,4.79E2,7.7E0,2.341E3,1.951E3,2.3E6,2.3E6,1E0,2.008E3,8.1914696E1,2.01E3,1.993E3,3.96E2,-1.3567047E-1,7.4E0,7.4E7,1.937E3,1.96E3,3E5,1.2E1,1.99E3,1.09E2,7.7E1,-5.8911544E-1,3.8279457E1,1.692991E1,7.6E0,9.5E5,5.9E0,9E0,1.1E2,2.3E7,1.9913961E1,4.0371098E1,5.2E7,6.81596E1,8.2E0,5.5E0,-6.473398E-2,-2.5074173E-2,-4.990101E-4,3.5267703E-2,-1.0423797E-1,-2.7263847E-1,-1.4402883E-1,3.56363E-2,-4.1445643E-2,-1.7388932E-1,-3.9341103E-2,-6.5414156E-3,-1.3323383E-1,-5.5879813E-2,-5.1637918E-2,-1.5861039E-1,-2.1833968E-1,-5.723671E-2,8.011252E-2,-2.3141671E-2,1.7340565E-2,-8.266299E-2,3.246567E-2,-1.1440425E-2,-1.8722787E-2,-1.0077899E-1,2.6134063E-2,7.659324E-2,1.5349579E-3,4.343539E-2,2.148997E-2,-1.907109E-2,4.4576142E-2,-5.344223E-2,5.1993895E-2,7.791032E-2,1.9370198E-2,-8.14023E-2,8.213152E-2,-1.2340355E-2,5.326974E-2,1.2225642E-1],"split_indices":[4,0,0,3,4,0,4,0,0,5,5,1,4,3,4,5,0,0,21,5,1,5,5,4,0,3,0,5,5,0,6,5,4,4,0,1,1,3,0,3,6,2,0,1,1,0,1,3,3,0,0,0,0,0,0,0,0,0,0,0,0,0,0,0,0,0,0,0,0,0,0,0,0,0,0,0,0,0,0,0,0,0,0,0,0,0,0,0,0,0,0],"split_type":[0,0,0,0,0,0,0,0,0,0,0,0,0,0,0,0,0,0,0,0,0,0,0,0,0,0,0,0,0,0,0,0,0,0,0,0,0,0,0,0,0,0,0,0,0,0,0,0,0,0,0,0,0,0,0,0,0,0,0,0,0,0,0,0,0,0,0,0,0,0,0,0,0,0,0,0,0,0,0,0,0,0,0,0,0,0,0,0,0,0,0],"sum_hessian":[2.066E3,5.16E2,1.55E3,1.1E1,5.05E2,7.83E2,7.67E2,1E0,1E1,7.7E1,4.28E2,1.06E2,6.77E2,3.38E2,4.29E2,1.1E1,6.6E1,2.08E2,2.2E2,9.1E1,1.5E1,3E2,3.77E2,3.37E2,1E0,2.67E2,1.62E2,6E0,5E0,2.1E1,4.5E1,2.7E1,1.81E2,2.19E2,1E0,6.1E1,3E1,1.1E1,4E0,2.14E2,8.6E1,8E1,2.97E2,1.48E2,1.89E2,2.51E2,1.6E1,4.6E1,1.16E2,3E0,3E0,3E0,2E0,5E0,1.6E1,4.3E1,2E0,1.7E1,1E1,1.2E2,6.1E1,8.5E1,1.34E2,5.7E1,4E0,1.3E1,1.7E1,9E0,2E0,1E0,3E0,5.7E1,1.57E2,5.1E1,3.5E1,2.7E1,5.3E1,2.04E2,9.3E1,1.28E2,2E1,1.85E2,4E0,8.2E1,1.69E2,1.5E1,1E0,4.5E1,1E0,5E0,1.11E2],"tree_param":{"num_deleted":"0","num_feature":"54","num_nodes":"91","size_leaf_vector":"1"}},{"base_weights":[1.1346018E-3,-7.7625036E-1,3.1039324E-1,-4.8810306E0,-6.66868E-1,1.2120788E-1,6.9240725E-1,-5.6967483E0,2.8075758E-1,-1.1305104E0,-3.8707426E-1,-1.1257443E-1,2.7319837E-1,5.0195944E-1,9.554357E-1,-6.043839E0,-7.658305E-2,6.703234E-2,-2.49187E-2,-7.87454E-1,-1.6731446E0,-1.9658564E-1,-7.142028E-1,2.6303284E-2,-5.182508E-1,-2.1398692E-1,3.311846E-1,5.186412E-1,-1.2334414E-1,8.3624244E-1,1.1396189E0,-6.3252306E-1,-1.4742656E-1,-1.1535088E0,-5.226379E-1,-1.834005E0,3.1236035E-1,-1.2131753E0,-1.3919832E-1,-9.2243457E-1,1.6221127E-1,1.6810974E-1,-2.2143726E-1,-9.605204E-1,-8.316337E-2,-9.0137854E-2,-1.3961716E0,6.8735486E-1,2.3045771E-1,2.8036106E-1,5.817783E-1,7.202661E-1,9.462134E-1,1.157699E0,-1.1723327E-2,-1.2454376E-1,-1.951844E-2,-6.820234E-2,5.539195E-3,-4.0974027E-1,-1.6848598E-1,-2.4054313E-2,7.871737E-2,-6.2998205E-1,-1.7804207E-2,-4.590183E-2,-1.8890869E-3,-1.7064488E-1,-6.967827E-2,5.4099956E-3,7.432985E-2,3.4461796E-2,8.062884E-3,-7.60794E-2,-2.7469841E-3,-7.563692E-2,-2.605777E-1,3.2457353E-3,-8.14559E-2,-5.6813736E-2,1.5111535E-2,-1.9457494E-1,-1.9801077E-2,-8.310991E-2,7.0760965E-2,4.9981913E-3,3.496171E-2,1.03333406E-1,2.0939218E-2,8.245897E-2,5.2054126E-2,7.908847E-2,4.0147673E-2,6.0965117E-2,1.0147953E-1,4.902077E-3,1.1718277E-1],"categories":[],"categories_nodes":[],"categories_segments":[],"categories_sizes":[],"default_left":[0,0,0,0,0,0,0,0,0,0,0,0,0,0,0,0,0,0,0,0,0,0,0,0,0,0,0,0,0,0,0,0,0,0,0,0,0,0,0,0,0,0,0,0,0,0,0,0,0,0,0,0,0,0,0,0,0,0,0,0,0,0,0,0,0,0,0,0,0,0,0,0,0,0,0,0,0,0,0,0,0,0,0,0,0,0,0,0,0,0,0,0,0,0,0,0,0],"id":9,"left_children":[1,3,5,7,9,11,13,15,17,19,21,23,25,27,29,31,-1,-1,-1,33,35,37,39,41,43,45,47,49,-1,51,53,-1,-1,55,57,59,61,63,65,67,69,71,73,75,77,79,81,83,85,87,89,91,93,95,-1,-1,-1,-1,-1,-1,-1,-1,-1,-1,-1,-1,-1,-1,-1,-1,-1,-1,-1,-1,-1,-1,-1,-1,-1,-1,-1,-1,-1,-1,-1,-1,-1,-1,-1,-1,-1,-1,-1,-1,-1,-1,-1],"loss_changes":[4.9332803E2,2.5895547E2,1.06010574E2,6.475787E1,7.3505264E1,3.4959385E1,2.3865723E1,1.7620667E1,7.863807E-1,3.851947E1,2.2105793E1,2.1873322E1,1.690789E1,8.861359E0,3.50354E0,6.1049805E0,0E0,0E0,0E0,1.2289772E1,2.6762787E1,1.3074162E1,2.4056763E1,1.0225275E1,1.8970285E1,9.24455E0,1.8963459E1,4.0793915E0,0E0,9.3824005E-1,1.8854675E0,0E0,0E0,4.6022873E0,7.3160133E0,1.8752136E1,2.027031E0,6.206263E1,8.302301E0,1.7563904E1,1.5931623E0,2.8288178E0,1.1068569E1,1.4487247E1,4.339227E0,6.8896704E0,3.5656157E0,4.1865387E0,8.95027E0,3.043324E0,2.8716965E0,1.1682968E0,8.124161E-1,1.1330414E0,0E0,0E0,0E0,0E0,0E0,0E0,0E0,0E0,0E0,0E0,0E0,0E0,0E0,0E0,0E0,0E0,0E0,0E0,0E0,0E0,0E0,0E0,0E0,0E0,0E0,0E0,0E0,0E0,0E0,0E0,0E0,0E0,0E0,0E0,0E0,0E0,0E0,0E0,0E0,0E0,0E0,0E0,0E0],"parents":[2147483647,0,0,1,1,2,2,3,3,4,4,5,5,6,6,7,7,8,8,9,9,10,10,11,11,12,12,13,13,14,14,15,15,19,19,20,20,21,21,22,22,23,23,24,24,25,25,26,26,27,27,29,29,30,30,33,33,34,34,35,35,36,36,37,37,38,38,39,39,40,40,41,41,42,42,43,43,44,44,45,45,46,46,47,47,48,48,49,49,50,50,51,51,52,52,53,53],"right_children":[2,4,6,8,10,12,14,16,18,20,22,24,26,28,30,32,-1,-1,-1,34,36,38,40,42,44,46,48,50,-1,52,54,-1,-1,56,58,60,62,64,66,68,70,72,74,76,78,80,82,84,86,88,90,92,94,96,-1,-1,-1,-1,-1,-1,-1,-1,-1,-1,-1,-1,-1,-1,-1,-1,-1,-1,-1,-1,-1,-1,-1,-1,-1,-1,-1,-1,-1,-1,-1,-1,-1,-1,-1,-1,-1,-1,-1,-1,-1,-1,-1],"split_conditions":[2.08E2,1E5,5.2E7,1E0,6.3E1,4.84E2,1.685E3,1E0,2.5E2,2.004E3,2.006E3,2.01E3,4.5E6,7.5E0,3.992E3,1E0,-7.658305E-2,6.703234E-2,-2.49187E-2,1E2,3.1E7,3.476966E0,2.9E7,6.7E0,1.7E7,8.1E0,1.998E3,3.96E2,-1.2334414E-1,1.2E8,8.3E0,-6.3252306E-1,-1.4742656E-1,3.25E7,1E0,2.005E3,3.636634E0,1E1,8.5E6,8E0,2.013E3,1.4031377E1,1.2E1,1E0,1.25E2,1.1E1,9.033681E1,1E0,2.3E7,2.21E2,9.6E1,2.013E3,5.7E0,5.5E7,-1.1723327E-2,-1.2454376E-1,-1.951844E-2,-6.820234E-2,5.539195E-3,-4.0974027E-1,-1.6848598E-1,-2.4054313E-2,7.871737E-2,-6.2998205E-1,-1.7804207E-2,-4.590183E-2,-1.8890869E-3,-1.7064488E-1,-6.967827E-2,5.4099956E-3,7.432985E-2,3.4461796E-2,8.062884E-3,-7.60794E-2,-2.7469841E-3,-7.563692E-2,-2.605777E-1,3.2457353E-3,-8.14559E-2,-5.6813736E-2,1.5111535E-2,-1.9457494E-1,-1.9801077E-2,-8.310991E-2,7.0760965E-2,4.9981913E-3,3.496171E-2,1.03333406E-1,2.0939218E-2,8.245897E-2,5.2054126E-2,7.908847E-2,4.0147673E-2,6.0965117E-2,1.0147953E-1,4.902077E-3,1.1718277E-1],"split_indices":[4,0,0,19,4,4,4,13,0,5,5,5,0,3,4,12,0,0,0,2,0,1,0,3,0,3,5,4,0,0,3,0,0,0,11,5,1,7,0,7,5,1,7,12,2,7,1,31,0,4,2,5,3,0,0,0,0,0,0,0,0,0,0,0,0,0,0,0,0,0,0,0,0,0,0,0,0,0,0,0,0,0,0,0,0,0,0,0,0,0,0,0,0,0,0,0,0],"split_type":[0,0,0,0,0,0,0,0,0,0,0,0,0,0,0,0,0,0,0,0,0,0,0,0,0,0,0,0,0,0,0,0,0,0,0,0,0,0,0,0,0,0,0,0,0,0,0,0,0,0,0,0,0,0,0,0,0,0,0,0,0,0,0,0,0,0,0,0,0,0,0,0,0,0,0,0,0,0,0,0,0,0,0,0,0,0,0,0,0,0,0,0,0,0,0,0,0],"sum_hessian":[2.05E3,5.83E2,1.467E3,1.4E1,5.69E2,9.82E2,4.85E2,1.2E1,2E0,2.13E2,3.56E2,3.87E2,5.95E2,2.83E2,2.02E2,1.1E1,1E0,1E0,1E0,1.32E2,8.1E1,2.26E2,1.3E2,2.89E2,9.8E1,6.3E1,5.32E2,2.81E2,2E0,1.26E2,7.6E1,1E1,1E0,5.4E1,7.8E1,7.5E1,6E0,1.1E1,2.15E2,1.05E2,2.5E1,1.84E2,1.05E2,4.8E1,5E1,5.8E1,5E0,1.16E2,4.16E2,6E1,2.21E2,6.5E1,6.1E1,7.5E1,1E0,4.9E1,5E0,6.1E1,1.7E1,3E0,7.2E1,3E0,3E0,1E0,1E1,5.8E1,1.57E2,2.2E1,8.3E1,2.2E1,3E0,6E1,1.24E2,2.7E1,7.8E1,4.4E1,4E0,4.4E1,6E0,1.9E1,3.9E1,3E0,2E0,1E0,1.15E2,1.66E2,2.5E2,4E0,5.6E1,4.2E1,1.79E2,5.2E1,1.3E1,1.2E1,4.9E1,1E0,7.4E1],"tree_param":{"num_deleted":"0","num_feature":"54","num_nodes":"97","size_leaf_vector":"1"}},{"base_weights":[2.2669157E-3,-4.9572876E-1,3.11298E-1,-1.7033206E0,-3.8434434E-1,-5.3183455E-2,4.9252334E-1,-2.741699E0,-8.6604977E-1,-4.8502126E-1,3.836979E-1,-1.8231845E-1,2.1295801E-1,4.0179643E-1,8.9700717E-1,-1.075302E0,-3.854726E0,-2.9123557E-1,-6.7146736E-1,-3.5582818E-2,-6.4334655E-1,5.597441E-1,-8.686489E-3,-2.8828973E-1,1.5205999E-1,-6.465132E-1,2.7082172E-1,3.6506674E-1,8.9808536E-1,8.244268E-1,1.1479566E0,-1.7354872E0,8.439865E-1,-1.6957945E0,-4.388567E0,-8.972761E-1,2.3102272E-1,-3.5569164E-1,1.3352533E-1,-9.051019E-1,-3.743674E-1,6.47948E-1,-7.929957E-1,-5.611494E-1,4.0620363E-1,-7.711085E-1,-1.7754936E-1,6.3728786E-1,8.699735E-2,2.6242575E-2,-8.424781E-1,1.643943E-1,5.786722E-1,4.560728E-1,2.7092907E-1,9.440382E-1,-9.056982E-2,8.5163504E-1,3.268535E-1,1.6384697E-2,1.1744168E0,-6.623521E-2,-2.6761517E-1,1.0230414E-1,1.5341091E-2,-1.9554491E-1,-3.28588E-2,-4.650174E-1,-6.2464E-2,-1.1796061E-2,-1.18854105E-1,-7.640853E-2,4.8233606E-2,-5.571438E-2,8.713873E-3,3.880658E-3,6.494098E-2,-1.00869894E-1,3.420804E-2,-3.1601273E-2,-1.9833855E-1,4.0835656E-2,1.0468153E-1,-1.60953E-1,1.5692393E-3,1.746359E-2,-6.43915E-2,-1.0930688E-2,7.264406E-2,-4.703336E-2,-3.3605E-1,4.3087933E-2,-2.2840578E-2,9.6344E-3,7.008021E-2,1.4517005E-2,-3.9081234E-2,7.387829E-3,-3.4514428E-3,-9.089324E-2,-2.2187615E-2,-5.505454E-2,2.0875176E-2,-6.689962E-3,6.2248003E-2,4.7744483E-2,-5.8913954E-2,2.063355E-2,5.0290953E-2,1.0083156E-1,5.7489395E-2,-7.844925E-4,-1.2800979E-2,7.624489E-2,1.0081704E-1,2.9162217E-3,6.1725426E-2,1.19127505E-1,3.3433534E-2],"categories":[],"categories_nodes":[],"categories_segments":[],"categories_sizes":[],"default_left":[0,0,0,0,0,0,0,0,0,0,0,0,0,0,0,0,0,0,0,0,0,0,0,0,0,0,0,0,0,0,0,0,0,0,0,0,0,0,0,0,0,0,0,0,0,0,0,0,0,0,0,0,0,0,0,0,0,0,0,0,0,0,0,0,0,0,0,0,0,0,0,0,0,0,0,0,0,0,0,0,0,0,0,0,0,0,0,0,0,0,0,0,0,0,0,0,0,0,0,0,0,0,0,0,0,0,0,0,0,0,0,0,0,0,0,0,0,0,0],"id":10,"left_children":[1,3,5,7,9,11,13,15,17,19,21,23,25,27,29,31,33,-1,35,37,39,41,43,45,47,49,51,53,55,57,59,61,63,65,67,69,71,73,75,77,79,81,83,85,87,89,91,93,95,97,99,101,103,105,107,109,111,113,115,-1,117,-1,-1,-1,-1,-1,-1,-1,-1,-1,-1,-1,-1,-1,-1,-1,-1,-1,-1,-1,-1,-1,-1,-1,-1,-1,-1,-1,-1,-1,-1,-1,-1,-1,-1,-1,-1,-1,-1,-1,-1,-1,-1,-1,-1,-1,-1,-1,-1,-1,-1,-1,-1,-1,-1,-1,-1,-1,-1],"loss_changes":[3.1548755E2,1.0493329E2,8.35836E1,5.500621E1,5.585948E1,1.4507828E1,3.0649033E1,4.9642593E1,1.3175106E1,4.5304398E1,5.807396E0,1.0107237E1,7.0381317E0,1.2286278E1,1.8585434E0,1.7936844E1,1.2150848E1,0E0,7.5437355E0,9.087706E0,3.282274E1,7.434202E0,6.4166493E0,1.1412077E1,2.1229014E0,1.2086372E0,4.164155E0,5.4107895E0,2.2207832E0,1.3868332E0,6.4084244E-1,8.322052E0,3.3765793E-1,1.1324701E0,9.896057E0,6.4424324E0,2.3692172E0,5.2226787E0,5.3498306E0,3.1095718E1,2.134436E1,4.828615E0,2.6665432E0,8.4322333E-1,2.7207732E0,2.9572407E1,5.5752387E0,2.0734334E-1,1.7800536E0,1.1232477E-2,8.702135E-2,3.2227921E0,9.749203E-1,7.5858994E0,4.6912556E0,4.8807144E-1,8.287428E-3,8.5076904E-1,6.735977E-1,0E0,4.0748596E-2,0E0,0E0,0E0,0E0,0E0,0E0,0E0,0E0,0E0,0E0,0E0,0E0,0E0,0E0,0E0,0E0,0E0,0E0,0E0,0E0,0E0,0E0,0E0,0E0,0E0,0E0,0E0,0E0,0E0,0E0,0E0,0E0,0E0,0E0,0E0,0E0,0E0,0E0,0E0,0E0,0E0,0E0,0E0,0E0,0E0,0E0,0E0,0E0,0E0,0E0,0E0,0E0,0E0,0E0,0E0,0E0,0E0,0E0],"parents":[2147483647,0,0,1,1,2,2,3,3,4,4,5,5,6,6,7,7,8,8,9,9,10,10,11,11,12,12,13,13,14,14,15,15,16,16,18,18,19,19,20,20,21,21,22,22,23,23,24,24,25,25,26,26,27,27,28,28,29,29,30,30,31,31,32,32,33,33,34,34,35,35,36,36,37,37,38,38,39,39,40,40,41,41,42,42,43,43,44,44,45,45,46,46,47,47,48,48,49,49,50,50,51,51,52,52,53,53,54,54,55,55,56,56,57,57,58,58,60,60],"right_children":[2,4,6,8,10,12,14,16,18,20,22,24,26,28,30,32,34,-1,36,38,40,42,44,46,48,50,52,54,56,58,60,62,64,66,68,70,72,74,76,78,80,82,84,86,88,90,92,94,96,98,100,102,104,106,108,110,112,114,116,-1,118,-1,-1,-1,-1,-1,-1,-1,-1,-1,-1,-1,-1,-1,-1,-1,-1,-1,-1,-1,-1,-1,-1,-1,-1,-1,-1,-1,-1,-1,-1,-1,-1,-1,-1,-1,-1,-1,-1,-1,-1,-1,-1,-1,-1,-1,-1,-1,-1,-1,-1,-1,-1,-1,-1,-1,-1,-1,-1],"split_conditions":[1.77E7,2.043661E0,1.8045782E1,1E2,4.107553E1,4.3E7,1.1E8,8E0,4.7E0,1.993E3,7.7E0,1E0,4.4E0,7.660323E1,2E8,4E0,3E0,-2.9123557E-1,1E0,3.5E6,8.5E6,1E0,6.5E6,5.759545E0,3E0,2.605374E0,1.567747E1,2.007E3,1E0,1.58E2,5.2E0,1.6E1,2.7E6,1.867004E0,1E0,1.96E3,4.39E5,1.974E3,1E0,1.21E2,1.41E2,1.1E2,3E5,1.961E3,7.9E0,2.01E3,8.7E1,3.353176E0,2.6E1,5.6E7,9E0,2E0,1.992E3,8E0,1E0,1E0,2E7,6.7E0,1.35E8,1.6384697E-2,1E0,-6.623521E-2,-2.6761517E-1,1.0230414E-1,1.5341091E-2,-1.9554491E-1,-3.28588E-2,-4.650174E-1,-6.2464E-2,-1.1796061E-2,-1.18854105E-1,-7.640853E-2,4.8233606E-2,-5.571438E-2,8.713873E-3,3.880658E-3,6.494098E-2,-1.00869894E-1,3.420804E-2,-3.1601273E-2,-1.9833855E-1,4.0835656E-2,1.0468153E-1,-1.60953E-1,1.5692393E-3,1.746359E-2,-6.43915E-2,-1.0930688E-2,7.264406E-2,-4.703336E-2,-3.3605E-1,4.3087933E-2,-2.2840578E-2,9.6344E-3,7.008021E-2,1.4517005E-2,-3.9081234E-2,7.387829E-3,-3.4514428E-3,-9.089324E-2,-2.2187615E-2,-5.505454E-2,2.0875176E-2,-6.689962E-3,6.2248003E-2,4.7744483E-2,-5.8913954E-2,2.063355E-2,5.0290953E-2,1.0083156E-1,5.7489395E-2,-7.844925E-4,-1.2800979E-2,7.624489E-2,1.0081704E-1,2.9162217E-3,6.1725426E-2,1.19127505E-1,3.3433534E-2],"split_indices":[0,1,1,2,1,0,0,6,3,5,3,11,3,1,0,6,7,0,11,0,0,24,0,1,6,1,1,5,16,2,3,7,0,1,10,5,0,5,11,2,2,2,0,5,3,5,2,1,7,0,6,6,5,3,11,14,0,3,0,0,24,0,0,0,0,0,0,0,0,0,0,0,0,0,0,0,0,0,0,0,0,0,0,0,0,0,0,0,0,0,0,0,0,0,0,0,0,0,0,0,0,0,0,0,0,0,0,0,0,0,0,0,0,0,0,0,0,0,0],"split_type":[0,0,0,0,0,0,0,0,0,0,0,0,0,0,0,0,0,0,0,0,0,0,0,0,0,0,0,0,0,0,0,0,0,0,0,0,0,0,0,0,0,0,0,0,0,0,0,0,0,0,0,0,0,0,0,0,0,0,0,0,0,0,0,0,0,0,0,0,0,0,0,0,0,0,0,0,0,0,0,0,0,0,0,0,0,0,0,0,0,0,0,0,0,0,0,0,0,0,0,0,0,0,0,0,0,0,0,0,0,0,0,0,0,0,0,0,0,0,0],"sum_hessian":[2.048E3,7.84E2,1.264E3,6.5E1,7.19E2,4.2E2,8.44E2,2.8E1,3.7E1,6.36E2,8.3E1,2.83E2,1.37E2,6.91E2,1.53E2,1.2E1,1.6E1,2E0,3.5E1,1.66E2,4.7E2,5.7E1,2.6E1,2.15E2,6.8E1,8E0,1.29E2,6.45E2,4.6E1,1.22E2,3.1E1,9E0,3E0,4E0,1.2E1,2.8E1,7E0,5.7E1,1.09E2,2.37E2,2.33E2,5.4E1,3E0,1.1E1,1.5E1,3.9E1,1.76E2,7E0,6.1E1,2E0,6E0,9.7E1,3.2E1,3.26E2,3.19E2,4.4E1,2E0,1.15E2,7E0,1E0,3E1,5E0,4E0,2E0,1E0,3E0,1E0,1.1E1,1E0,8E0,2E1,1E0,6E0,3.9E1,1.8E1,9.3E1,1.6E1,2.19E2,1.8E1,2.26E2,7E0,3.5E1,1.9E1,1E0,2E0,1E0,1E1,6E0,9E0,3.6E1,3E0,1.3E1,1.63E2,1E0,6E0,5.5E1,6E0,1E0,1E0,5E0,1E0,5E0,9.2E1,2E0,3E1,3.2E2,6E0,2.51E2,6.8E1,3.6E1,8E0,1E0,1E0,7.7E1,3.8E1,4E0,3E0,2.9E1,1E0],"tree_param":{"num_deleted":"0","num_feature":"54","num_nodes":"119","size_leaf_vector":"1"}},{"base_weights":[-1.6622473E-2,-6.7821157E-1,2.3120797E-1,-4.2142415E0,-5.8647E-1,4.6359774E-2,5.1466775E-1,6.872425E-2,-4.6441436E0,-1.9378653E0,-5.070717E-1,-3.640621E-1,1.5074603E-1,3.52546E-1,7.6870006E-1,-4.9486504E0,-4.950304E-2,-2.6498702E0,-9.3486893E-1,-7.3026025E-1,-2.9452264E-1,-7.136305E-1,-1.4811558E-1,1.0893231E-1,4.591927E-1,-6.3898616E-2,4.103682E-1,6.49512E-1,9.2998093E-1,-5.60213E-1,-2.2411592E0,-4.9867034E-1,-3.0752223E0,-3.1535688E-1,-5.2161753E-1,-9.071239E-1,-8.027375E-2,-1.2762127E0,-2.141665E-1,8.0067253E-1,-8.424334E-1,-5.9611302E-2,-1.5050943E0,1.9039662E-1,-6.912889E-2,1.8316318E-1,5.757528E-1,5.2604795E-1,-4.4086787E-1,3.7312227E-1,9.768637E-1,6.810653E-1,3.0100647E-1,7.769591E-1,1.0062944E0,-6.0843993E-2,-2.5825855E-1,-1.3450499E-1,2.3180611E-2,-3.406153E-1,-7.264252E-2,-6.116879E-2,-1.7486891E-3,-8.550804E-2,-5.579852E-1,-9.098228E-2,8.028402E-3,-2.9869196E-1,-5.0684918E-2,1.5766306E-2,-2.9962108E-2,-1.4504242E-2,1.018824E-1,-1.6857898E-1,-6.944924E-2,-2.3645166E-2,3.3743214E-2,5.876093E-2,-1.9518131E-1,1.0301943E-2,3.0285288E-2,-3.583696E-2,1.1720561E-2,3.757742E-2,-5.5360444E-2,6.066369E-2,-2.132581E-2,-3.880644E-3,6.416059E-2,-7.1794674E-2,-1.1600495E-3,3.1155247E-2,5.7860233E-2,1.2880903E-1,5.679506E-2,2.5677282E-2,7.123097E-2,-1.3385296E-2,4.4484958E-2,6.4596966E-2,9.590197E-2,1.01747826E-1,1.7322255E-2],"categories":[],"categories_nodes":[],"categories_segments":[],"categories_sizes":[],"default_left":[0,0,0,0,0,0,0,0,0,0,0,0,0,0,0,0,0,0,0,0,0,0,0,0,0,0,0,0,0,0,0,0,0,0,0,0,0,0,0,0,0,0,0,0,0,0,0,0,0,0,0,0,0,0,0,0,0,0,0,0,0,0,0,0,0,0,0,0,0,0,0,0,0,0,0,0,0,0,0,0,0,0,0,0,0,0,0,0,0,0,0,0,0,0,0,0,0,0,0,0,0,0,0],"id":11,"left_children":[1,3,5,7,9,11,13,-1,15,17,19,21,23,25,27,29,-1,31,33,35,37,39,41,43,45,47,49,51,53,-1,55,57,59,-1,61,63,65,67,69,71,73,75,77,79,81,83,85,87,89,91,93,95,97,99,101,-1,-1,-1,-1,-1,-1,-1,-1,-1,-1,-1,-1,-1,-1,-1,-1,-1,-1,-1,-1,-1,-1,-1,-1,-1,-1,-1,-1,-1,-1,-1,-1,-1,-1,-1,-1,-1,-1,-1,-1,-1,-1,-1,-1,-1,-1,-1,-1],"loss_changes":[3.3693457E2,1.7919296E2,7.83097E1,3.269188E1,5.770964E1,3.8870102E1,2.4027649E1,0E0,1.3974915E1,1.8946861E1,2.4358078E1,1.3784107E1,9.274731E0,8.743088E0,3.7979736E0,8.6762085E0,0E0,1.4021774E1,1.1191377E1,2.8896835E1,2.0788927E1,1.4327774E1,1.3721598E1,9.267756E0,2.6615105E0,1.0239544E1,6.3451996E0,1.279522E0,3.2752228E-1,0E0,6.5846443E-1,2.784832E0,8.407745E0,0E0,5.795977E-1,4.337947E1,7.3985243E0,2.4809193E1,7.9273233E0,1.385627E0,6.9390945E0,7.7330365E0,7.690852E0,4.2726374E0,1.0875003E1,4.039589E0,1.591444E0,1.1998205E0,3.3220172E0,3.6151428E0,1.6864567E0,1.4476852E0,8.727145E-1,2.3902893E-1,3.8277054E-1,0E0,0E0,0E0,0E0,0E0,0E0,0E0,0E0,0E0,0E0,0E0,0E0,0E0,0E0,0E0,0E0,0E0,0E0,0E0,0E0,0E0,0E0,0E0,0E0,0E0,0E0,0E0,0E0,0E0,0E0,0E0,0E0,0E0,0E0,0E0,0E0,0E0,0E0,0E0,0E0,0E0,0E0,0E0,0E0,0E0,0E0,0E0,0E0],"parents":[2147483647,0,0,1,1,2,2,3,3,4,4,5,5,6,6,8,8,9,9,10,10,11,11,12,12,13,13,14,14,15,15,17,17,18,18,19,19,20,20,21,21,22,22,23,23,24,24,25,25,26,26,27,27,28,28,30,30,31,31,32,32,34,34,35,35,36,36,37,37,38,38,39,39,40,40,41,41,42,42,43,43,44,44,45,45,46,46,47,47,48,48,49,49,50,50,51,51,52,52,53,53,54,54],"right_children":[2,4,6,8,10,12,14,-1,16,18,20,22,24,26,28,30,-1,32,34,36,38,40,42,44,46,48,50,52,54,-1,56,58,60,-1,62,64,66,68,70,72,74,76,78,80,82,84,86,88,90,92,94,96,98,100,102,-1,-1,-1,-1,-1,-1,-1,-1,-1,-1,-1,-1,-1,-1,-1,-1,-1,-1,-1,-1,-1,-1,-1,-1,-1,-1,-1,-1,-1,-1,-1,-1,-1,-1,-1,-1,-1,-1,-1,-1,-1,-1,-1,-1,-1,-1,-1,-1],"split_conditions":[1.98E2,1E5,9.57E2,5E0,1.1E1,1E7,7.4E7,6.872425E-2,1E0,1.01E2,1.25E7,3.41E2,1.2E1,6.5E6,2.892E3,2.5E2,-4.950304E-2,2E0,3E0,1.2E2,2E0,2E0,1E0,9E0,2.3E7,7.3E0,4.637E3,1E0,1.5E1,-5.60213E-1,6.4E0,2.3E5,1.7E7,-3.1535688E-1,1E1,1E0,6.1E0,1E1,4E0,6E5,8E5,1.09E2,8.4E1,6E0,1E1,6.44E2,2.7E1,3E0,1.07E2,1E0,8E0,5.4E0,1.2E2,1.6E8,1E0,-6.0843993E-2,-2.5825855E-1,-1.3450499E-1,2.3180611E-2,-3.406153E-1,-7.264252E-2,-6.116879E-2,-1.7486891E-3,-8.550804E-2,-5.579852E-1,-9.098228E-2,8.028402E-3,-2.9869196E-1,-5.0684918E-2,1.5766306E-2,-2.9962108E-2,-1.4504242E-2,1.018824E-1,-1.6857898E-1,-6.944924E-2,-2.3645166E-2,3.3743214E-2,5.876093E-2,-1.9518131E-1,1.0301943E-2,3.0285288E-2,-3.583696E-2,1.1720561E-2,3.757742E-2,-5.5360444E-2,6.066369E-2,-2.132581E-2,-3.880644E-3,6.416059E-2,-7.1794674E-2,-1.1600495E-3,3.1155247E-2,5.7860233E-2,1.2880903E-1,5.679506E-2,2.5677282E-2,7.123097E-2,-1.3385296E-2,4.4484958E-2,6.4596966E-2,9.590197E-2,1.01747826E-1,1.7322255E-2],"split_indices":[4,0,4,3,4,0,0,0,13,2,0,4,6,0,4,0,0,7,3,2,6,6,24,6,0,3,4,14,7,0,3,0,0,0,6,21,3,7,6,0,0,2,2,6,6,4,7,6,2,11,6,3,2,0,11,0,0,0,0,0,0,0,0,0,0,0,0,0,0,0,0,0,0,0,0,0,0,0,0,0,0,0,0,0,0,0,0,0,0,0,0,0,0,0,0,0,0,0,0,0,0,0,0],"split_type":[0,0,0,0,0,0,0,0,0,0,0,0,0,0,0,0,0,0,0,0,0,0,0,0,0,0,0,0,0,0,0,0,0,0,0,0,0,0,0,0,0,0,0,0,0,0,0,0,0,0,0,0,0,0,0,0,0,0,0,0,0,0,0,0,0,0,0,0,0,0,0,0,0,0,0,0,0,0,0,0,0,0,0,0,0,0,0,0,0,0,0,0,0,0,0,0,0,0,0,0,0,0,0],"sum_hessian":[2.053E3,5.59E2,1.494E3,1.3E1,5.46E2,9.05E2,5.89E2,1E0,1.2E1,2.9E1,5.17E2,1.83E2,7.22E2,3.61E2,2.28E2,1.1E1,1E0,1.6E1,1.3E1,2.51E2,2.66E2,6.9E1,1.14E2,6.37E2,8.5E1,4.4E1,3.17E2,1.34E2,9.4E1,8E0,3E0,3E0,1.3E1,1E0,1.2E1,1.97E2,5.4E1,1.9E1,2.47E2,5E0,6.4E1,1.08E2,6E0,4.37E2,2E2,2.6E1,5.9E1,1.7E1,2.7E1,2.99E2,1.8E1,1.22E2,1.2E1,3.5E1,5.9E1,1E0,2E0,1E0,2E0,1.1E1,2E0,1E1,2E0,1.96E2,1E0,8E0,4.6E1,5E0,1.4E1,4.6E1,2.01E2,1E0,4E0,8E0,5.6E1,7.5E1,3.3E1,1E0,5E0,2.47E2,1.9E2,7.8E1,1.22E2,2.1E1,5E0,5.7E1,2E0,3E0,1.4E1,1.6E1,1.1E1,2.32E2,6.7E1,9E0,9E0,9E0,1.13E2,3E0,9E0,2.3E1,1.2E1,5.8E1,1E0],"tree_param":{"num_deleted":"0","num_feature":"54","num_nodes":"103","size_leaf_vector":"1"}},{"base_weights":[-3.883033E-2,-6.568276E-1,1.9531034E-1,-4.130114E0,-5.873053E-1,1.2444762E-2,4.5758522E-1,6.528802E-2,-4.673702E0,-7.414346E-1,-8.310342E-2,-3.063692E-1,1.3546757E-1,2.834057E-1,6.269485E-1,-5.0884956E-1,-4.7027875E-2,-1.2489485E0,-6.1387616E-1,-1.4345776E-2,-7.6948434E-1,-1.2505588E-1,-6.104834E-1,2.7364716E-1,-2.7059888E-2,-7.996801E-2,3.3834898E-1,5.5555224E-1,8.1723994E-1,1.18827105E-1,-1.3732209E0,-3.3393568E-1,-8.471206E-1,-6.0016476E-2,8.7101203E-1,-1.8472011E0,2.7418137E-4,2.946309E-1,-4.3609986E-1,-4.4346962E-2,-8.096441E-1,3.1481248E-1,-1.4012554E-1,-1.14487365E-1,2.9028752E-1,4.5180827E-1,-5.5976605E-1,3.142072E-1,9.928193E-2,2.352431E-1,5.8661085E-1,8.313164E-1,-1.6851425E-2,-3.868742E-2,4.9962275E-2,-2.3159432E-1,-1.14904664E-1,-8.2797505E-2,-2.1167666E-2,-7.9467654E-2,-5.300859E-1,-1.6440528E-2,3.0765263E-2,3.4440104E-2,1.04821734E-1,-3.408995E-2,-2.1385518E-1,-4.386754E-2,3.5137903E-2,-1.4829683E-2,4.2525034E-2,-1.3018565E-1,-3.2383237E-2,9.801118E-2,-4.194451E-2,-1.57146E-1,-4.594821E-2,1.1758287E-2,4.5459237E-2,-4.7036E-2,1.7892603E-2,-2.1762107E-2,3.6533035E-3,3.154143E-2,-6.46349E-2,6.237924E-2,-5.3453445E-3,4.132576E-2,-6.777313E-2,2.5865827E-2,5.2929223E-2,4.243515E-2,-3.4122088E-3,5.5247534E-2,8.988881E-2,8.48377E-2,9.926224E-3],"categories":[],"categories_nodes":[],"categories_segments":[],"categories_sizes":[],"default_left":[0,0,0,0,0,0,0,0,0,0,0,0,0,0,0,0,0,0,0,0,0,0,0,0,0,0,0,0,0,0,0,0,0,0,0,0,0,0,0,0,0,0,0,0,0,0,0,0,0,0,0,0,0,0,0,0,0,0,0,0,0,0,0,0,0,0,0,0,0,0,0,0,0,0,0,0,0,0,0,0,0,0,0,0,0,0,0,0,0,0,0,0,0,0,0,0,0],"id":12,"left_children":[1,3,5,7,9,11,13,-1,15,17,19,21,23,25,27,-1,-1,29,31,33,35,37,39,41,43,45,47,49,51,53,55,57,59,61,63,65,67,69,71,73,75,77,79,81,83,85,87,89,-1,91,93,95,-1,-1,-1,-1,-1,-1,-1,-1,-1,-1,-1,-1,-1,-1,-1,-1,-1,-1,-1,-1,-1,-1,-1,-1,-1,-1,-1,-1,-1,-1,-1,-1,-1,-1,-1,-1,-1,-1,-1,-1,-1,-1,-1,-1,-1],"loss_changes":[2.9965378E2,1.3497134E2,7.20318E1,3.1651093E1,4.3379562E1,3.4791653E1,1.802359E1,0E0,1.50425415E1,2.6941025E1,6.2185607E0,1.3543222E1,1.438051E1,6.1363316E0,3.7848358E0,0E0,0E0,1.4611206E1,2.2178467E1,4.9448996E0,9.955486E0,2.049289E1,1.0337292E1,5.937561E0,8.217975E0,1.0713861E1,3.8908691E0,2.1501312E0,1.2917862E0,1.7338419E0,1.3822952E1,9.368057E0,3.946553E1,4.5027213E0,1.989026E-1,1.4652786E0,1.3870798E0,3.9393468E0,8.326086E0,1.0017917E1,1.7417557E1,8.630697E0,3.4557376E0,3.6214182E0,1.7100844E0,1.7712841E0,2.8053036E0,2.945612E0,0E0,1.1351426E0,1.7312698E0,9.399109E-1,0E0,0E0,0E0,0E0,0E0,0E0,0E0,0E0,0E0,0E0,0E0,0E0,0E0,0E0,0E0,0E0,0E0,0E0,0E0,0E0,0E0,0E0,0E0,0E0,0E0,0E0,0E0,0E0,0E0,0E0,0E0,0E0,0E0,0E0,0E0,0E0,0E0,0E0,0E0,0E0,0E0,0E0,0E0,0E0,0E0],"parents":[2147483647,0,0,1,1,2,2,3,3,4,4,5,5,6,6,8,8,9,9,10,10,11,11,12,12,13,13,14,14,17,17,18,18,19,19,20,20,21,21,22,22,23,23,24,24,25,25,26,26,27,27,28,28,29,29,30,30,31,31,32,32,33,33,34,34,35,35,36,36,37,37,38,38,39,39,40,40,41,41,42,42,43,43,44,44,45,45,46,46,47,47,49,49,50,50,51,51],"right_children":[2,4,6,8,10,12,14,-1,16,18,20,22,24,26,28,-1,-1,30,32,34,36,38,40,42,44,46,48,50,52,54,56,58,60,62,64,66,68,70,72,74,76,78,80,82,84,86,88,90,-1,92,94,96,-1,-1,-1,-1,-1,-1,-1,-1,-1,-1,-1,-1,-1,-1,-1,-1,-1,-1,-1,-1,-1,-1,-1,-1,-1,-1,-1,-1,-1,-1,-1,-1,-1,-1,-1,-1,-1,-1,-1,-1,-1,-1,-1,-1,-1],"split_conditions":[1.98E2,2.5E2,9.72E2,5E0,2.6E7,1.38E7,5.2E7,6.528802E-2,7.1E0,2.6E1,1E0,2.009E3,2.006E3,5.5E6,3.992E3,-5.0884956E-1,-4.7027875E-2,2E0,2.002E3,2.012E3,7.9E1,6.8E0,5E0,7.1E0,1E0,7.3E0,5.265E3,3E0,8.3E0,2.3E6,4.7E0,2.3E6,1E0,1E0,3.7E7,1.867004E0,7E0,3.2E6,3E0,2.84E2,3.2E2,3.83E2,1.995E3,3.6E7,3.8924137E1,1.381E3,1.045E3,1E0,9.928193E-2,2.013E3,1E0,1E0,-1.6851425E-2,-3.868742E-2,4.9962275E-2,-2.3159432E-1,-1.14904664E-1,-8.2797505E-2,-2.1167666E-2,-7.9467654E-2,-5.300859E-1,-1.6440528E-2,3.0765263E-2,3.4440104E-2,1.04821734E-1,-3.408995E-2,-2.1385518E-1,-4.386754E-2,3.5137903E-2,-1.4829683E-2,4.2525034E-2,-1.3018565E-1,-3.2383237E-2,9.801118E-2,-4.194451E-2,-1.57146E-1,-4.594821E-2,1.1758287E-2,4.5459237E-2,-4.7036E-2,1.7892603E-2,-2.1762107E-2,3.6533035E-3,3.154143E-2,-6.46349E-2,6.237924E-2,-5.3453445E-3,4.132576E-2,-6.777313E-2,2.5865827E-2,5.2929223E-2,4.243515E-2,-3.4122088E-3,5.5247534E-2,8.988881E-2,8.48377E-2,9.926224E-3],"split_indices":[4,0,4,3,0,0,0,0,3,4,9,5,5,0,4,0,0,7,5,5,4,3,6,3,11,3,4,6,3,0,3,0,21,11,0,1,7,0,6,4,4,4,5,0,1,4,4,11,0,5,10,24,0,0,0,0,0,0,0,0,0,0,0,0,0,0,0,0,0,0,0,0,0,0,0,0,0,0,0,0,0,0,0,0,0,0,0,0,0,0,0,0,0,0,0,0,0],"split_type":[0,0,0,0,0,0,0,0,0,0,0,0,0,0,0,0,0,0,0,0,0,0,0,0,0,0,0,0,0,0,0,0,0,0,0,0,0,0,0,0,0,0,0,0,0,0,0,0,0,0,0,0,0,0,0,0,0,0,0,0,0,0,0,0,0,0,0,0,0,0,0,0,0,0,0,0,0,0,0,0,0,0,0,0,0,0,0,0,0,0,0,0,0,0,0,0,0],"sum_hessian":[2.069E3,5.68E2,1.501E3,1E1,5.58E2,8.85E2,6.16E2,1E0,9E0,4.27E2,1.31E2,2.46E2,6.39E2,3.05E2,3.11E2,8E0,1E0,8.4E1,3.43E2,1.2E2,1.1E1,1.55E2,9.1E1,3.45E2,2.94E2,4E1,2.65E2,2.29E2,8.2E1,7E0,7.7E1,1.57E2,1.86E2,1.15E2,5E0,4E0,7E0,6.6E1,8.9E1,2.4E1,6.7E1,3.14E2,3.1E1,2.31E2,6.3E1,1.9E1,2.1E1,2.57E2,8E0,2.1E1,2.08E2,8.1E1,1E0,3E0,4E0,1.3E1,6.4E1,3E1,1.27E2,1.85E2,1E0,9E1,2.5E1,2E0,3E0,1E0,3E0,3E0,4E0,1.5E1,5.1E1,9E0,8E1,6E0,1.8E1,2E1,4.7E1,1.31E2,1.83E2,1.5E1,1.6E1,1.37E2,9.4E1,6.2E1,1E0,1.4E1,5E0,2E0,1.9E1,2.06E2,5.1E1,1.2E1,9E0,1.9E2,1.8E1,7.9E1,2E0],"tree_param":{"num_deleted":"0","num_feature":"54","num_nodes":"97","size_leaf_vector":"1"}},{"base_weights":[-1.2492713E-2,-7.078477E-1,1.2836125E-1,-3.6859632E-1,-6.271706E-1,-9.726992E-2,3.3288473E-1,-5.329141E-1,-1.5525451E0,-3.595164E0,-8.432255E-2,2.161858E-1,6.046716E-1,-1.040292E0,-3.757112E-1,-2.7231147E0,6.336914E-2,4.380436E-2,-5.83079E-1,-6.5060174E-1,-2.5444087E-2,8.027335E-2,3.0622667E-1,5.297638E-1,8.00589E-1,-1.5175457E0,-5.607809E-1,-2.9661396E-1,-1.7279696E0,-1.6032926E0,-4.695544E-1,9.208753E-1,-9.2569065E-1,-9.8399055E-1,1.266315E-1,9.7810514E-2,-2.013814E-1,5.4935113E-2,5.866833E-1,2.5413564E-1,5.380855E-1,6.092957E-1,2.9917973E-1,8.249185E-1,-4.207166E-2,-9.9952616E-2,-2.603997E-1,5.9640806E-2,-7.144622E-2,-6.42873E-2,-1.47600025E-2,-1.0326644E-1,-5.0358164E-1,5.6629046E-3,-3.0341724E-1,-1.5803082E-2,1.3068491E-1,-2.8964862E-1,4.419249E-2,-8.61492E-2,-2.779302E-1,2.7060015E-2,-1.5923238E-1,1.06731495E-2,-1.8958698E-1,-3.1229606E-2,2.1466061E-2,-4.2985365E-2,7.326773E-3,7.060469E-2,-6.756465E-4,6.0819503E-2,2.0446757E-2,6.1086554E-2,2.0853084E-2,4.7155395E-2,7.218893E-2,1.1175455E-2,4.2858616E-2,8.41277E-2,-1.6008854E-2,-1.7402077E-2,1.1091328E-2],"categories":[],"categories_nodes":[],"categories_segments":[],"categories_sizes":[],"default_left":[0,0,0,0,0,0,0,0,0,0,0,0,0,0,0,0,0,0,0,0,0,0,0,0,0,0,0,0,0,0,0,0,0,0,0,0,0,0,0,0,0,0,0,0,0,0,0,0,0,0,0,0,0,0,0,0,0,0,0,0,0,0,0,0,0,0,0,0,0,0,0,0,0,0,0,0,0,0,0,0,0,0,0],"id":13,"left_children":[1,3,5,-1,7,9,11,13,15,17,19,21,23,25,27,29,31,-1,-1,33,35,37,39,41,43,45,47,49,51,53,-1,55,57,59,61,63,65,67,69,71,73,75,77,79,81,-1,-1,-1,-1,-1,-1,-1,-1,-1,-1,-1,-1,-1,-1,-1,-1,-1,-1,-1,-1,-1,-1,-1,-1,-1,-1,-1,-1,-1,-1,-1,-1,-1,-1,-1,-1,-1,-1],"loss_changes":[2.029319E2,8.1540985E1,7.9543434E1,0E0,2.8915527E1,3.683345E1,2.8541649E1,2.4414917E1,5.881031E1,2.960437E1,2.7256916E1,7.7341003E0,3.553009E0,1.5854927E1,2.5050877E1,3.2229523E1,1.2726193E1,0E0,0E0,2.0076908E1,1.611003E1,3.2269807E0,4.464882E0,3.4671326E0,1.531311E0,1.7658142E1,7.1839666E0,1.1617727E1,2.4699211E1,3.1048748E1,0E0,3.5379596E0,2.0147066E1,9.481503E0,6.3702993E0,7.9746532E0,1.4187456E1,2.191143E0,8.5479164E-1,5.3798885E0,1.5275784E0,1.9393883E0,1.237567E0,1.2787247E0,7.985989E-2,0E0,0E0,0E0,0E0,0E0,0E0,0E0,0E0,0E0,0E0,0E0,0E0,0E0,0E0,0E0,0E0,0E0,0E0,0E0,0E0,0E0,0E0,0E0,0E0,0E0,0E0,0E0,0E0,0E0,0E0,0E0,0E0,0E0,0E0,0E0,0E0,0E0,0E0],"parents":[2147483647,0,0,1,1,2,2,4,4,5,5,6,6,7,7,8,8,9,9,10,10,11,11,12,12,13,13,14,14,15,15,16,16,19,19,20,20,21,21,22,22,23,23,24,24,25,25,26,26,27,27,28,28,29,29,31,31,32,32,33,33,34,34,35,35,36,36,37,37,38,38,39,39,40,40,41,41,42,42,43,43,44,44],"right_children":[2,4,6,-1,8,10,12,14,16,18,20,22,24,26,28,30,32,-1,-1,34,36,38,40,42,44,46,48,50,52,54,-1,56,58,60,62,64,66,68,70,72,74,76,78,80,82,-1,-1,-1,-1,-1,-1,-1,-1,-1,-1,-1,-1,-1,-1,-1,-1,-1,-1,-1,-1,-1,-1,-1,-1,-1,-1,-1,-1,-1,-1,-1,-1,-1,-1,-1,-1,-1,-1],"split_conditions":[1.09E2,1E5,3E7,-3.6859632E-1,2.011E3,3.476966E0,1.652E3,2.785832E0,5.9E0,3.500159E6,1.644736E6,4.51E2,8.8377075E1,1E2,1.0536092E1,7.5E6,6E0,4.380436E-2,-5.83079E-1,2.7990284E1,2.008E3,1.41E2,1E0,2.013E3,1E0,2.004E3,1.01E2,5.5E6,1E0,1.6E1,-4.695544E-1,6E5,5.033065E0,1.2E1,1E0,2E2,9.83E2,4.5E0,1.905218E1,1.997E3,4.0371098E1,1.6E1,2.341E3,8.3E0,5E7,-9.9952616E-2,-2.603997E-1,5.9640806E-2,-7.144622E-2,-6.42873E-2,-1.47600025E-2,-1.0326644E-1,-5.0358164E-1,5.6629046E-3,-3.0341724E-1,-1.5803082E-2,1.3068491E-1,-2.8964862E-1,4.419249E-2,-8.61492E-2,-2.779302E-1,2.7060015E-2,-1.5923238E-1,1.06731495E-2,-1.8958698E-1,-3.1229606E-2,2.1466061E-2,-4.2985365E-2,7.326773E-3,7.060469E-2,-6.756465E-4,6.0819503E-2,2.0446757E-2,6.1086554E-2,2.0853084E-2,4.7155395E-2,7.218893E-2,1.1175455E-2,4.2858616E-2,8.41277E-2,-1.6008854E-2,-1.7402077E-2,1.1091328E-2],"split_indices":[4,0,0,0,5,1,4,1,3,0,0,4,1,2,1,0,6,0,0,1,5,2,11,5,12,5,2,0,21,7,0,0,1,6,24,2,4,3,1,5,1,7,4,3,0,0,0,0,0,0,0,0,0,0,0,0,0,0,0,0,0,0,0,0,0,0,0,0,0,0,0,0,0,0,0,0,0,0,0,0,0,0,0],"split_type":[0,0,0,0,0,0,0,0,0,0,0,0,0,0,0,0,0,0,0,0,0,0,0,0,0,0,0,0,0,0,0,0,0,0,0,0,0,0,0,0,0,0,0,0,0,0,0,0,0,0,0,0,0,0,0,0,0,0,0,0,0,0,0,0,0,0,0,0,0,0,0,0,0,0,0,0,0,0,0,0,0,0,0],"sum_hessian":[2.07E3,3.48E2,1.722E3,8E0,3.4E2,8.19E2,9.03E2,3.1E2,3E1,2E0,8.17E2,6.33E2,2.7E2,7.2E1,2.38E2,1.7E1,1.3E1,1E0,1E0,7.6E1,7.41E2,2.53E2,3.8E2,1.98E2,7.2E1,3.5E1,3.7E1,2.26E2,1.2E1,1.2E1,5E0,7E0,6E0,5.3E1,2.3E1,4.36E2,3.05E2,2.42E2,1.1E1,3.12E2,6.8E1,1.46E2,5.2E1,7E1,2E0,2.5E1,1E1,4E0,3.3E1,6.7E1,1.59E2,1.1E1,1E0,6E0,6E0,2E0,5E0,2E0,4E0,5.1E1,2E0,2.2E1,1E0,4.35E2,1E0,2.41E2,6.4E1,8E0,2.34E2,9E0,2E0,3.7E1,2.75E2,5.5E1,1.3E1,6.8E1,7.8E1,2.2E1,3E1,6.9E1,1E0,1E0,1E0],"tree_param":{"num_deleted":"0","num_feature":"54","num_nodes":"83","size_leaf_vector":"1"}},{"base_weights":[-1.300387E-2,-3.8214013E-1,1.6392715E-1,-3.3897111E0,-3.40737E-1,5.82955E-2,4.6778587E-1,6.63311E-2,-3.9792528E0,-4.486002E-1,-3.9725725E-2,-8.219416E-1,7.724243E-2,3.5764652E-1,6.168745E-1,-4.472727E-1,-2.6246691E-2,-2.2955553E-1,-6.739899E-1,-1.1207699E-1,-2.0858726E-2,-1.6253797E0,-2.4673557E-1,4.354014E-2,3.8999563E-1,-1.2097826E-1,3.709346E-1,5.563667E-1,8.0324733E-1,-2.0609199E-1,-2.0638287E-1,-6.342043E-1,-3.6056483E0,-4.6515884E-4,-8.8746905E-1,-1.9171356E0,3.543339E-2,-5.436512E-1,6.314664E-2,-8.49949E-2,1.276905E-1,4.291943E-1,-4.967933E-2,-3.6483355E-2,3.9814338E-1,5.772602E-1,1.4259012E-1,2.0659892E-2,8.331473E-1,-4.068054E-3,-3.2266535E-2,-7.97139E-2,-1.882835E-2,-4.7840253E-1,-6.2444735E-2,-6.42191E-3,3.4193438E-2,-1.512023E-1,4.9309637E-2,-2.060488E-1,-4.5683432E-2,-8.5935596E-4,-9.881004E-2,2.5751164E-2,-1.729777E-2,3.477348E-2,4.721544E-3,7.599609E-2,3.1910773E-2,-2.2350753E-2,6.704731E-2,-2.8710056E-2,2.551482E-2,2.6625255E-2,4.5718055E-2,5.399385E-2,7.999449E-2,-2.0748902E-2,4.570217E-2,1.9418908E-2,8.470463E-2],"categories":[],"categories_nodes":[],"categories_segments":[],"categories_sizes":[],"default_left":[0,0,0,0,0,0,0,0,0,0,0,0,0,0,0,0,0,0,0,0,0,0,0,0,0,0,0,0,0,0,0,0,0,0,0,0,0,0,0,0,0,0,0,0,0,0,0,0,0,0,0,0,0,0,0,0,0,0,0,0,0,0,0,0,0,0,0,0,0,0,0,0,0,0,0,0,0,0,0,0,0],"id":14,"left_children":[1,3,5,7,9,11,13,-1,15,17,19,21,23,25,27,-1,-1,29,31,-1,33,35,37,39,41,-1,43,45,47,-1,49,51,53,55,57,59,-1,61,-1,63,65,67,69,71,73,75,77,-1,79,-1,-1,-1,-1,-1,-1,-1,-1,-1,-1,-1,-1,-1,-1,-1,-1,-1,-1,-1,-1,-1,-1,-1,-1,-1,-1,-1,-1,-1,-1,-1,-1],"loss_changes":[1.3525778E2,8.2399864E1,4.490867E1,2.414431E1,2.1508492E1,1.740839E1,5.7071915E0,0E0,1.3499161E1,2.3938034E1,3.5663288E0,9.766094E0,1.0723789E1,4.8226624E0,1.2672043E0,0E0,0E0,1.01416235E1,2.570633E1,0E0,3.074737E0,5.8776436E0,3.993824E0,9.972636E0,1.7275553E0,0E0,2.3313599E0,9.3782425E-1,4.522648E-1,0E0,4.7461376E0,1.7142029E1,7.5515594E0,3.7547724E0,4.194524E0,7.3339844E-1,0E0,2.6073735E0,0E0,1.1043705E1,9.846981E0,3.0710716E0,1.2765009E0,1.0964836E0,1.404419E0,4.9890518E-1,8.653585E-1,0E0,1.28582E-1,0E0,0E0,0E0,0E0,0E0,0E0,0E0,0E0,0E0,0E0,0E0,0E0,0E0,0E0,0E0,0E0,0E0,0E0,0E0,0E0,0E0,0E0,0E0,0E0,0E0,0E0,0E0,0E0,0E0,0E0,0E0,0E0],"parents":[2147483647,0,0,1,1,2,2,3,3,4,4,5,5,6,6,8,8,9,9,10,10,11,11,12,12,13,13,14,14,17,17,18,18,20,20,21,21,22,22,23,23,24,24,26,26,27,27,28,28,30,30,31,31,32,32,33,33,34,34,35,35,37,37,39,39,40,40,41,41,42,42,43,43,44,44,45,45,46,46,48,48],"right_children":[2,4,6,8,10,12,14,-1,16,18,20,22,24,26,28,-1,-1,30,32,-1,34,36,38,40,42,-1,44,46,48,-1,50,52,54,56,58,60,-1,62,-1,64,66,68,70,72,74,76,78,-1,80,-1,-1,-1,-1,-1,-1,-1,-1,-1,-1,-1,-1,-1,-1,-1,-1,-1,-1,-1,-1,-1,-1,-1,-1,-1,-1,-1,-1,-1,-1,-1,-1],"split_conditions":[1.3080725E1,2.5E2,6.1E7,5E0,2.6E7,8E5,1.1E8,6.63311E-2,7.1E0,2.003E3,7.6E1,1E1,5.8594852E1,1.929E3,1.85E8,-4.472727E-1,-2.6246691E-2,3.1E0,1E0,-1.1207699E-1,1E0,7.3E0,1E0,1.9E7,1.43E2,-1.2097826E-1,5.4E0,1.58E2,5.6E0,-2.0609199E-1,1.991E3,1.14E2,1.25E7,2.008E3,4.16777E7,2.012E3,3.543339E-2,2.361241E1,6.314664E-2,9.4E1,2.002E3,1.996E3,2.6E1,7.4E7,2.7990284E1,1.41E2,1.35E8,2.0659892E-2,9.4E1,-4.068054E-3,-3.2266535E-2,-7.97139E-2,-1.882835E-2,-4.7840253E-1,-6.2444735E-2,-6.42191E-3,3.4193438E-2,-1.512023E-1,4.9309637E-2,-2.060488E-1,-4.5683432E-2,-8.5935596E-4,-9.881004E-2,2.5751164E-2,-1.729777E-2,3.477348E-2,4.721544E-3,7.599609E-2,3.1910773E-2,-2.2350753E-2,6.704731E-2,-2.8710056E-2,2.551482E-2,2.6625255E-2,4.5718055E-2,5.399385E-2,7.999449E-2,-2.0748902E-2,4.570217E-2,1.9418908E-2,8.470463E-2],"split_indices":[1,0,0,3,0,0,0,0,3,5,2,7,1,5,0,0,0,3,21,0,53,3,19,0,2,0,3,2,3,0,5,2,0,5,0,5,0,1,0,2,5,5,7,0,1,2,0,0,2,0,0,0,0,0,0,0,0,0,0,0,0,0,0,0,0,0,0,0,0,0,0,0,0,0,0,0,0,0,0,0,0],"split_type":[0,0,0,0,0,0,0,0,0,0,0,0,0,0,0,0,0,0,0,0,0,0,0,0,0,0,0,0,0,0,0,0,0,0,0,0,0,0,0,0,0,0,0,0,0,0,0,0,0,0,0,0,0,0,0,0,0,0,0,0,0,0,0,0,0,0,0,0,0,0,0,0,0,0,0,0,0,0,0,0,0],"sum_hessian":[2.069E3,6.7E2,1.399E3,8E0,6.62E2,1.039E3,3.6E2,1E0,7E0,4.87E2,1.75E2,2.1E1,1.018E3,2.09E2,1.51E2,6E0,1E0,2.48E2,2.39E2,2E0,1.73E2,8E0,1.3E1,9.2E2,9.8E1,1E0,2.08E2,1.17E2,3.4E1,2E0,2.46E2,2.37E2,2E0,1.7E2,3E0,7E0,1E0,1E1,3E0,3.64E2,5.56E2,9E1,8E0,1.3E1,1.95E2,1.11E2,6E0,2E0,3.2E1,1.02E2,1.44E2,1.73E2,6.4E1,1E0,1E0,1.44E2,2.6E1,2E0,1E0,6E0,1E0,5E0,5E0,7.4E1,2.9E2,1.48E2,4.08E2,2.1E1,6.9E1,7E0,1E0,7E0,6E0,6.2E1,1.33E2,9.8E1,1.3E1,3E0,3E0,1E0,3.1E1],"tree_param":{"num_deleted":"0","num_feature":"54","num_nodes":"81","size_leaf_vector":"1"}},{"base_weights":[1.5305302E-3,-4.6981174E-1,1.6208334E-1,-2.8400311E0,-4.279657E-1,-2.6530704E-1,2.2545613E-1,-3.3525715E0,6.301456E-2,-7.431417E-1,-3.1910613E-1,-8.345594E-2,-5.970984E-1,1.21381104E-1,4.404109E-1,-3.7602692E0,-2.493434E-2,-1.535852E0,-6.3697535E-1,-7.4876446E-1,-2.3535205E-1,-5.194763E-3,-1.4690548E0,-1.4234856E0,-1.9701667E-1,1.7247598E-1,-1.1477616E-1,3.651527E-1,5.854461E-1,-9.8816134E-2,-4.057594E-1,2.1160579E-1,-1.9903501E0,-3.7821597E-1,-9.5206785E-1,-5.5624914E-1,-2.8706923E0,-7.401797E-1,-1.892866E-1,4.037096E-1,-1.6869879E-1,-1.6992364E0,-4.3982505E-3,-2.876543E0,-6.07989E-1,7.47424E-1,-3.9952764E-1,2.494274E-1,4.6490535E-2,1.7204392E-1,-3.493307E-1,4.3421778E-1,1.4713036E-1,-2.1681087E-1,5.978361E-1,-5.1427126E-2,6.2498856E-2,-2.5063142E-1,-3.318441E-2,-9.946222E-3,-8.735055E-2,-2.6260093E-1,-7.229905E-2,-8.334333E-2,-1.1729598E-2,4.680128E-2,-3.8223717E-1,-3.7634555E-1,-3.4777947E-2,-1.7288102E-2,-1.7612816E-1,1.1572964E-2,9.7002536E-2,-1.20754115E-1,-8.012028E-3,-4.463334E-2,-1.8605503E-1,-3.096139E-1,-6.696858E-2,9.772981E-2,-9.042656E-2,9.7589605E-2,-3.481865E-3,-7.104277E-2,1.3065529E-2,1.6885595E-2,4.7028694E-2,-6.0414514E-3,3.0868499E-2,1.1632401E-1,9.878642E-3,-2.771747E-2,-9.679376E-2,5.826336E-2,3.077898E-2,2.2030031E-2,-3.285534E-2,-5.3956985E-2,2.1435356E-2,6.101594E-2,4.7392846E-4],"categories":[],"categories_nodes":[],"categories_segments":[],"categories_sizes":[],"default_left":[0,0,0,0,0,0,0,0,0,0,0,0,0,0,0,0,0,0,0,0,0,0,0,0,0,0,0,0,0,0,0,0,0,0,0,0,0,0,0,0,0,0,0,0,0,0,0,0,0,0,0,0,0,0,0,0,0,0,0,0,0,0,0,0,0,0,0,0,0,0,0,0,0,0,0,0,0,0,0,0,0,0,0,0,0,0,0,0,0,0,0,0,0,0,0,0,0,0,0,0,0],"id":15,"left_children":[1,3,5,7,9,11,13,15,-1,17,19,21,23,25,27,29,-1,31,33,35,37,39,41,43,45,47,49,51,53,-1,-1,55,57,59,61,63,65,67,69,71,73,75,-1,77,79,81,83,85,87,89,91,93,95,97,99,-1,-1,-1,-1,-1,-1,-1,-1,-1,-1,-1,-1,-1,-1,-1,-1,-1,-1,-1,-1,-1,-1,-1,-1,-1,-1,-1,-1,-1,-1,-1,-1,-1,-1,-1,-1,-1,-1,-1,-1,-1,-1,-1,-1,-1,-1],"loss_changes":[1.5755652E2,5.125306E1,4.2122704E1,1.8120056E1,1.7638329E1,1.2077829E1,3.021508E1,9.18383E0,0E0,1.0214867E1,1.3822189E1,1.41978245E1,2.3193737E1,1.1036444E1,4.599777E0,1.7599487E0,0E0,1.2334412E1,9.342361E0,2.4138905E1,7.4643154E0,8.425294E0,2.2214422E0,2.5505257E1,9.670337E0,7.269169E0,1.1025917E1,4.34803E0,1.6106682E0,0E0,0E0,1.5216739E0,9.43705E0,9.163394E0,1.8424911E1,7.08082E0,1.7675804E1,3.072217E1,7.45815E0,5.758893E0,8.18497E0,3.822384E-1,0E0,1.8034897E0,8.398672E0,1.6424637E0,6.8510094E0,8.213047E0,8.035203E0,5.258416E0,3.748971E0,3.9862595E0,2.578395E0,5.3314537E-1,1.071518E0,0E0,0E0,0E0,0E0,0E0,0E0,0E0,0E0,0E0,0E0,0E0,0E0,0E0,0E0,0E0,0E0,0E0,0E0,0E0,0E0,0E0,0E0,0E0,0E0,0E0,0E0,0E0,0E0,0E0,0E0,0E0,0E0,0E0,0E0,0E0,0E0,0E0,0E0,0E0,0E0,0E0,0E0,0E0,0E0,0E0,0E0],"parents":[2147483647,0,0,1,1,2,2,3,3,4,4,5,5,6,6,7,7,9,9,10,10,11,11,12,12,13,13,14,14,15,15,17,17,18,18,19,19,20,20,21,21,22,22,23,23,24,24,25,25,26,26,27,27,28,28,31,31,32,32,33,33,34,34,35,35,36,36,37,37,38,38,39,39,40,40,41,41,43,43,44,44,45,45,46,46,47,47,48,48,49,49,50,50,51,51,52,52,53,53,54,54],"right_children":[2,4,6,8,10,12,14,16,-1,18,20,22,24,26,28,30,-1,32,34,36,38,40,42,44,46,48,50,52,54,-1,-1,56,58,60,62,64,66,68,70,72,74,76,-1,78,80,82,84,86,88,90,92,94,96,98,100,-1,-1,-1,-1,-1,-1,-1,-1,-1,-1,-1,-1,-1,-1,-1,-1,-1,-1,-1,-1,-1,-1,-1,-1,-1,-1,-1,-1,-1,-1,-1,-1,-1,-1,-1,-1,-1,-1,-1,-1,-1,-1,-1,-1,-1,-1],"split_conditions":[1.75E2,2.5E2,7E6,9.67299E0,3.8E1,2.008E3,1.325E3,7.1E0,6.301456E-2,8.7E1,6E0,1.43E2,2.012E3,2.012E3,3.095E3,7.9E1,-2.493434E-2,7E1,9E0,2.013E3,2E0,6.7E0,1.97E3,2.87E2,2E0,6.5E0,1.05E2,7.2E0,2E0,-9.8816134E-2,-4.057594E-1,6.72695E-1,2.605374E0,1E0,4.7E0,1.09E2,5.5E6,1E1,1E0,4.1E2,2E0,1.35E6,-4.3982505E-3,3.2E6,8.7E1,2.4389194E1,6.63E2,6.24E2,1.1E1,2.24E2,1.33E2,2.01E3,6.81596E1,1.6E7,1E0,-5.1427126E-2,6.2498856E-2,-2.5063142E-1,-3.318441E-2,-9.946222E-3,-8.735055E-2,-2.6260093E-1,-7.229905E-2,-8.334333E-2,-1.1729598E-2,4.680128E-2,-3.8223717E-1,-3.7634555E-1,-3.4777947E-2,-1.7288102E-2,-1.7612816E-1,1.1572964E-2,9.7002536E-2,-1.20754115E-1,-8.012028E-3,-4.463334E-2,-1.8605503E-1,-3.096139E-1,-6.696858E-2,9.772981E-2,-9.042656E-2,9.7589605E-2,-3.481865E-3,-7.104277E-2,1.3065529E-2,1.6885595E-2,4.7028694E-2,-6.0414514E-3,3.0868499E-2,1.1632401E-1,9.878642E-3,-2.771747E-2,-9.679376E-2,5.826336E-2,3.077898E-2,2.2030031E-2,-3.285534E-2,-5.3956985E-2,2.1435356E-2,6.101594E-2,4.7392846E-4],"split_indices":[4,0,0,1,4,5,4,3,0,2,7,2,5,5,4,2,0,2,6,5,6,3,5,4,6,3,2,3,6,0,0,1,1,14,3,4,0,7,25,4,6,0,0,0,2,1,4,4,6,4,2,5,1,0,12,0,0,0,0,0,0,0,0,0,0,0,0,0,0,0,0,0,0,0,0,0,0,0,0,0,0,0,0,0,0,0,0,0,0,0,0,0,0,0,0,0,0,0,0,0,0],"split_type":[0,0,0,0,0,0,0,0,0,0,0,0,0,0,0,0,0,0,0,0,0,0,0,0,0,0,0,0,0,0,0,0,0,0,0,0,0,0,0,0,0,0,0,0,0,0,0,0,0,0,0,0,0,0,0,0,0,0,0,0,0,0,0,0,0,0,0,0,0,0,0,0,0,0,0,0,0,0,0,0,0,0,0,0,0,0,0,0,0,0,0,0,0,0,0,0,0,0,0,0,0],"sum_hessian":[2.08E3,5.28E2,1.552E3,8E0,5.2E2,2E2,1.352E3,7E0,1E0,1.32E2,3.88E2,1.3E2,7E1,9.12E2,4.4E2,6E0,1E0,1.4E1,1.18E2,6.2E1,3.26E2,1.24E2,6E0,2.2E1,4.8E1,7.5E2,1.62E2,2.92E2,1.48E2,1E0,5E0,3E0,1.1E1,6.6E1,5.2E1,5.8E1,4E0,2.6E1,3E2,3.5E1,8.9E1,5E0,1E0,7E0,1.5E1,8E0,4E1,4.65E2,2.85E2,7.3E1,8.9E1,2.21E2,7.1E1,2E0,1.46E2,1E0,2E0,8E0,3E0,4.3E1,2.3E1,5E0,4.7E1,3.5E1,2.3E1,1E0,3E0,2E0,2.4E1,2.98E2,2E0,2.4E1,1.1E1,6E0,8.3E1,1E0,4E0,6E0,1E0,2E0,1.3E1,6E0,2E0,2.5E1,1.5E1,3.42E2,1.23E2,2.03E2,8.2E1,4E0,6.9E1,8.1E1,8E0,1E2,1.21E2,6.2E1,9E0,1E0,1E0,1.43E2,3E0],"tree_param":{"num_deleted":"0","num_feature":"54","num_nodes":"101","size_leaf_vector":"1"}},{"base_weights":[-1.5340997E-2,-4.1376376E-1,1.04803875E-1,-2.9789305E0,-3.5770908E-1,-3.2337334E-2,2.8852326E-1,-8.26334E-2,-3.4137878E0,-9.4249207E-1,-2.603256E-1,-1.9022156E0,-2.3972245E-2,2.1673392E-1,4.959531E-1,-3.633257E-1,-9.387534E-2,-1.0820801E-1,-1.32942E0,-1.8787496E-1,-5.769613E-1,-2.9353794E-1,5.9863806E-2,1.3288799E-1,-7.476058E-2,-2.52547E-1,2.3779109E-1,4.5214596E-1,7.3545337E-1,-3.0651394E-1,6.2733495E-1,-3.1781667E-1,-1.169521E0,-8.802006E-1,-1.350508E-1,-6.1294112E-2,-8.7189144E-1,-1.0894496E0,1.6056763E-1,3.0968636E-1,-1.0123999E-1,-1.1548258E-1,-1.04577824E-1,1.4175253E-1,3.3899185E-1,-2.486089E-1,4.6344814E-1,1.5397168E-2,7.532663E-1,-6.600613E-2,-7.4735167E-3,-7.889939E-3,8.236184E-2,-7.090272E-2,-1.9818409E-1,-2.90782E-1,-5.4862645E-2,-8.644785E-3,-4.2138994E-2,3.5591587E-2,-8.478637E-2,-1.4038092E-1,-6.0368974E-2,-1.5160899E-1,3.085556E-2,-6.9116177E-3,3.016362E-2,3.8763236E-2,-8.847866E-2,-7.5211236E-3,-6.245139E-2,1.4929475E-2,-2.8626744E-2,4.899456E-3,2.7185846E-2,3.4955416E-2,-2.1256028E-2,2.3787785E-2,-6.1079122E-2,4.7496285E-2,4.3740845E-3,7.6818384E-2,2.05081E-2],"categories":[],"categories_nodes":[],"categories_segments":[],"categories_sizes":[],"default_left":[0,0,0,0,0,0,0,0,0,0,0,0,0,0,0,0,0,0,0,0,0,0,0,0,0,0,0,0,0,0,0,0,0,0,0,0,0,0,0,0,0,0,0,0,0,0,0,0,0,0,0,0,0,0,0,0,0,0,0,0,0,0,0,0,0,0,0,0,0,0,0,0,0,0,0,0,0,0,0,0,0,0,0],"id":16,"left_children":[1,3,5,7,9,11,13,-1,15,17,19,21,23,25,27,-1,-1,29,31,33,35,-1,-1,37,39,41,43,45,47,49,51,-1,53,55,57,59,61,63,65,67,69,-1,71,73,75,77,79,-1,81,-1,-1,-1,-1,-1,-1,-1,-1,-1,-1,-1,-1,-1,-1,-1,-1,-1,-1,-1,-1,-1,-1,-1,-1,-1,-1,-1,-1,-1,-1,-1,-1,-1,-1],"loss_changes":[9.793435E1,6.70907E1,3.9616646E1,6.539795E0,2.6235558E1,1.404757E1,9.899429E0,0E0,9.348068E-1,2.116146E1,9.067791E0,1.2092397E1,7.1640043E0,5.010803E0,1.4720612E0,0E0,0E0,3.4012628E0,9.585655E0,1.18400135E1,1.1200907E1,0E0,0E0,7.6183786E0,6.9435234E0,2.8164392E0,4.6171513E0,1.287384E0,1.4296532E-1,1.4256761E0,7.580936E-1,0E0,1.467976E1,1.3867739E1,4.2082343E0,9.490379E0,5.8576164E0,3.450025E0,7.0194993E0,4.439565E0,8.6154585E0,0E0,9.652585E-1,2.9796343E0,1.4316826E0,6.738844E-1,6.8481636E-1,0E0,3.8722992E-2,0E0,0E0,0E0,0E0,0E0,0E0,0E0,0E0,0E0,0E0,0E0,0E0,0E0,0E0,0E0,0E0,0E0,0E0,0E0,0E0,0E0,0E0,0E0,0E0,0E0,0E0,0E0,0E0,0E0,0E0,0E0,0E0,0E0,0E0],"parents":[2147483647,0,0,1,1,2,2,3,3,4,4,5,5,6,6,8,8,9,9,10,10,11,11,12,12,13,13,14,14,17,17,18,18,19,19,20,20,23,23,24,24,25,25,26,26,27,27,28,28,29,29,30,30,32,32,33,33,34,34,35,35,36,36,37,37,38,38,39,39,40,40,42,42,43,43,44,44,45,45,46,46,48,48],"right_children":[2,4,6,8,10,12,14,-1,16,18,20,22,24,26,28,-1,-1,30,32,34,36,-1,-1,38,40,42,44,46,48,50,52,-1,54,56,58,60,62,64,66,68,70,-1,72,74,76,78,80,-1,82,-1,-1,-1,-1,-1,-1,-1,-1,-1,-1,-1,-1,-1,-1,-1,-1,-1,-1,-1,-1,-1,-1,-1,-1,-1,-1,-1,-1,-1,-1,-1,-1,-1,-1],"split_conditions":[9.358197E0,1E5,4E7,7E0,2.3E6,2.5E2,5.3213932E1,-8.26334E-2,1E0,1.977E3,2.009E3,9.9E1,1.996E3,2E0,1.85E8,-3.633257E-1,-9.387534E-2,1.27E2,8.2E1,1.396985E0,8E0,-2.9353794E-1,5.9863806E-2,1E0,8.5E1,2.003E3,6.1E7,8.7E1,9.4E1,1.939E3,1.925E3,-3.1781667E-1,1.35E6,4E0,2.6E1,6.091951E0,5.033065E0,5.5E6,1.8345613E1,1E0,1E0,-1.1548258E-1,2.7600843E1,2.8727732E1,1.65E2,6E7,1E0,1.5397168E-2,1E0,-6.600613E-2,-7.4735167E-3,-7.889939E-3,8.236184E-2,-7.090272E-2,-1.9818409E-1,-2.90782E-1,-5.4862645E-2,-8.644785E-3,-4.2138994E-2,3.5591587E-2,-8.478637E-2,-1.4038092E-1,-6.0368974E-2,-1.5160899E-1,3.085556E-2,-6.9116177E-3,3.016362E-2,3.8763236E-2,-8.847866E-2,-7.5211236E-3,-6.245139E-2,1.4929475E-2,-2.8626744E-2,4.899456E-3,2.7185846E-2,3.4955416E-2,-2.1256028E-2,2.3787785E-2,-6.1079122E-2,4.7496285E-2,4.3740845E-3,7.6818384E-2,2.05081E-2],"split_indices":[1,0,0,7,0,0,1,0,39,5,5,2,5,6,0,0,0,2,2,1,6,0,0,31,2,5,0,2,2,5,5,0,0,7,7,1,1,0,1,23,24,0,1,1,2,0,12,0,24,0,0,0,0,0,0,0,0,0,0,0,0,0,0,0,0,0,0,0,0,0,0,0,0,0,0,0,0,0,0,0,0,0,0],"split_type":[0,0,0,0,0,0,0,0,0,0,0,0,0,0,0,0,0,0,0,0,0,0,0,0,0,0,0,0,0,0,0,0,0,0,0,0,0,0,0,0,0,0,0,0,0,0,0,0,0,0,0,0,0,0,0,0,0,0,0,0,0,0,0,0,0,0,0,0,0,0,0,0,0,0,0,0,0,0,0,0,0,0,0],"sum_hessian":[2.044E3,4.73E2,1.571E3,9E0,4.64E2,9E2,6.71E2,2E0,7E0,6.5E1,3.99E2,3E0,8.97E2,5E2,1.71E2,6E0,1E0,2.1E1,4.4E1,3.26E2,7.3E1,2E0,1E0,2.19E2,6.78E2,2.1E1,4.79E2,1.47E2,2.4E1,1.7E1,4E0,2E0,4.2E1,2.2E1,3.04E2,2.7E1,4.6E1,4E0,2.15E2,4.3E1,6.35E2,2E0,1.9E1,2.47E2,2.32E2,2E0,1.45E2,1E0,2.3E1,6E0,1.1E1,1E0,3E0,2.8E1,1.4E1,2E0,2E1,2.61E2,4.3E1,1.8E1,9E0,1.4E1,3.2E1,3E0,1E0,8.2E1,1.33E2,4.1E1,2E0,6.06E2,2.9E1,8E0,1.1E1,1.45E2,1.02E2,2.28E2,4E0,1E0,1E0,1.41E2,4E0,2.2E1,1E0],"tree_param":{"num_deleted":"0","num_feature":"54","num_nodes":"83","size_leaf_vector":"1"}},{"base_weights":[-3.644656E-3,-3.4028158E0,1.3019735E-2,-8.9181565E-2,-3.5827252E-1,-1.9842832E-1,1.9568352E-1,-5.5566955E-1,-1.0552877E-1,6.89351E-3,2.7501047E-1,-5.3043866E-1,-2.7252302E-1,-2.7924228E-1,4.7312547E-3,4.0253288E-1,-4.3783136E-2,2.1769024E-1,4.553994E-1,-1.0084565E0,-4.22557E-1,-2.5007412E-1,-3.005751E0,-1.3314091E0,2.527686E-2,2.412761E-1,6.5022075E-1,-3.2660194E-2,-1.6235952E-1,1.739649E-1,4.0362984E-1,4.123119E-1,5.966747E-1,-1.2698005E-1,4.6634022E-2,-2.4577567E-2,-6.052531E-2,-9.106821E-2,-1.8704677E-2,2.3793222E-3,-4.5324197E-1,2.1565532E-2,-5.306898E-1,-5.6655474E-2,4.674056E-3,4.9857788E-2,-5.75738E-3,7.428758E-2,-2.771473E-2,-9.5192185E-3,2.4640037E-2,4.02306E-3,2.2501621E-2,4.4967365E-2,1.716468E-2,5.4630186E-2,3.5237134E-2,3.7636932E-2,6.855175E-2],"categories":[],"categories_nodes":[],"categories_segments":[],"categories_sizes":[],"default_left":[0,0,0,0,0,0,0,0,0,0,0,0,0,0,0,0,0,0,0,0,0,0,0,0,0,0,0,0,0,0,0,0,0,0,0,0,0,0,0,0,0,0,0,0,0,0,0,0,0,0,0,0,0,0,0,0,0,0,0],"id":17,"left_children":[1,3,5,-1,-1,7,9,11,13,15,17,19,-1,21,23,25,27,29,31,33,35,37,39,41,43,45,47,49,-1,51,53,55,57,-1,-1,-1,-1,-1,-1,-1,-1,-1,-1,-1,-1,-1,-1,-1,-1,-1,-1,-1,-1,-1,-1,-1,-1,-1,-1],"loss_changes":[1.1611015E2,1.3223877E0,7.883159E1,0E0,0E0,3.1336784E1,1.6396973E1,9.228718E0,1.4404869E1,6.5337687E0,7.8729553E0,9.578323E0,0E0,2.24703E1,1.268894E1,1.3209472E0,5.0253267E0,4.7022514E0,8.801155E-1,1.4082191E1,5.0188026E0,1.1904203E1,1.3983171E1,4.419682E1,5.8062987E0,1.8741752E0,1.4088407E0,5.0491166E0,0E0,3.2475758E0,1.1084499E0,9.7205734E-1,5.44467E-1,0E0,0E0,0E0,0E0,0E0,0E0,0E0,0E0,0E0,0E0,0E0,0E0,0E0,0E0,0E0,0E0,0E0,0E0,0E0,0E0,0E0,0E0,0E0,0E0,0E0,0E0],"parents":[2147483647,0,0,1,1,2,2,5,5,6,6,7,7,8,8,9,9,10,10,11,11,13,13,14,14,15,15,16,16,17,17,18,18,19,19,20,20,21,21,22,22,23,23,24,24,25,25,26,26,27,27,29,29,30,30,31,31,32,32],"right_children":[2,4,6,-1,-1,8,10,12,14,16,18,20,-1,22,24,26,28,30,32,34,36,38,40,42,44,46,48,50,-1,52,54,56,58,-1,-1,-1,-1,-1,-1,-1,-1,-1,-1,-1,-1,-1,-1,-1,-1,-1,-1,-1,-1,-1,-1,-1,-1,-1,-1],"split_conditions":[2.5E2,7.9E1,3.96E2,-8.9181565E-2,-3.5827252E-1,5.5E1,2.2E7,1.1837067E1,1.5E7,4E0,2.341E3,8.95946E-1,-2.7252302E-1,1E0,3.476966E0,3.632705E1,2.02E2,1E0,1E0,1.1E1,9E0,3E0,3.2E6,9E1,2E0,9.9E1,1E0,1.2E2,-1.6235952E-1,5E0,4.0371098E1,1.09E2,1.16E2,-1.2698005E-1,4.6634022E-2,-2.4577567E-2,-6.052531E-2,-9.106821E-2,-1.8704677E-2,2.3793222E-3,-4.5324197E-1,2.1565532E-2,-5.306898E-1,-5.6655474E-2,4.674056E-3,4.9857788E-2,-5.75738E-3,7.428758E-2,-2.771473E-2,-9.5192185E-3,2.4640037E-2,4.02306E-3,2.2501621E-2,4.4967365E-2,1.716468E-2,5.4630186E-2,3.5237134E-2,3.7636932E-2,6.855175E-2],"split_indices":[0,2,4,0,0,4,0,1,0,7,4,1,0,21,1,1,2,11,9,6,6,7,0,4,7,2,12,2,0,6,1,2,2,0,0,0,0,0,0,0,0,0,0,0,0,0,0,0,0,0,0,0,0,0,0,0,0,0,0],"split_type":[0,0,0,0,0,0,0,0,0,0,0,0,0,0,0,0,0,0,0,0,0,0,0,0,0,0,0,0,0,0,0,0,0,0,0,0,0,0,0,0,0,0,0,0,0,0,0,0,0,0,0,0,0,0,0,0,0,0,0],"sum_hessian":[2.048E3,9E0,2.039E3,1E0,8E0,9.45E2,1.094E3,1.94E2,7.51E2,3.24E2,7.7E2,1.93E2,1E0,2.91E2,4.6E2,3.6E1,2.88E2,5.86E2,1.84E2,3.4E1,1.59E2,2.89E2,2E0,6E0,4.54E2,2.3E1,1.3E1,2.87E2,1E0,4.76E2,1.1E2,1.44E2,4E1,2.9E1,5E0,8.2E1,7.7E1,2.4E1,2.65E2,1E0,1E0,5E0,1E0,1.5E1,4.39E2,1.2E1,1.1E1,1.2E1,1E0,2.35E2,5.2E1,1.32E2,3.44E2,9.1E1,1.9E1,4.2E1,1.02E2,1.3E1,2.7E1],"tree_param":{"num_deleted":"0","num_feature":"54","num_nodes":"59","size_leaf_vector":"1"}},{"base_weights":[-2.6883708E-2,-2.8653628E-1,1.500211E-1,-2.4617786E0,-2.52121E-1,-2.0390573E-1,1.9324261E-1,-2.6875808E0,1.239233E-2,-5.594447E-1,-1.6063327E-1,-1.3321692E-1,-8.053435E-1,1.270669E-1,3.6812177E-1,1.0771847E-2,-2.9514916E0,-6.352523E-2,-8.3533823E-1,-6.482361E-1,-1.1917925E-1,-2.774857E-1,3.3900663E-1,-1.345589E0,-4.5468634E-1,1.5104508E-1,-2.0742866E-1,6.225888E-1,3.4290782E-1,-3.0771956E0,-8.47225E-2,8.522358E-2,-1.0358132E-1,-1.0147778E0,7.6003484E-2,9.053675E-2,-8.589294E-1,1.4401021E-2,-2.4663502E-1,-1.4689362E-1,-2.168354E0,-5.048237E-1,5.358389E-1,-4.9747977E-2,-1.7451687E-1,1.4252759E-2,-5.3687984E-1,2.3369585E-1,3.155753E-2,-3.17649E-1,2.523098E-1,7.9000884E-1,-6.714598E-2,-4.2897224E-2,3.5306907E-1,-9.108529E-2,-3.2166946E-1,3.9870846E-3,-2.6172807E-2,1.342634E-2,-1.10085726E-1,-1.6286008E-1,3.4115132E-2,4.958926E-2,-1.2908284E-1,-1.4018403E-1,-2.1366326E-2,3.1750628E-3,-1.6559614E-1,-2.164275E-2,-2.0037182E-1,1.5464216E-2,-3.851844E-2,-3.220701E-1,-4.2440416E-3,-6.738751E-2,1.7021656E-2,6.6990525E-2,-3.0196905E-2,-5.821116E-2,-8.751297E-3,1.5589622E-2,3.094009E-2,-4.6551577E-3,3.2885544E-2,-5.6002196E-2,-9.233729E-3,-2.7438482E-2,3.9984025E-2,8.304994E-2,-9.901047E-4,-3.1007195E-2,5.737419E-2,9.499496E-3,-5.0407123E-2,5.77725E-2,3.298107E-2],"categories":[],"categories_nodes":[],"categories_segments":[],"categories_sizes":[],"default_left":[0,0,0,0,0,0,0,0,0,0,0,0,0,0,0,0,0,0,0,0,0,0,0,0,0,0,0,0,0,0,0,0,0,0,0,0,0,0,0,0,0,0,0,0,0,0,0,0,0,0,0,0,0,0,0,0,0,0,0,0,0,0,0,0,0,0,0,0,0,0,0,0,0,0,0,0,0,0,0,0,0,0,0,0,0,0,0,0,0,0,0,0,0,0,0,0,0],"id":18,"left_children":[1,3,5,7,9,11,13,15,-1,17,19,21,23,25,27,-1,29,31,33,35,37,39,41,43,45,47,49,51,53,55,-1,-1,57,59,61,63,65,67,69,71,73,75,77,-1,-1,-1,79,81,83,85,87,89,91,93,95,-1,-1,-1,-1,-1,-1,-1,-1,-1,-1,-1,-1,-1,-1,-1,-1,-1,-1,-1,-1,-1,-1,-1,-1,-1,-1,-1,-1,-1,-1,-1,-1,-1,-1,-1,-1,-1,-1,-1,-1,-1,-1],"loss_changes":[9.5447464E1,6.2412804E1,1.8946808E1,7.923195E0,2.3246708E1,5.6322284E0,1.2706398E1,9.170448E0,0E0,2.5942917E1,1.2879339E1,8.405577E0,2.040351E0,6.4558315E0,1.7241783E0,0E0,3.0257416E-1,2.6193202E0,2.0027885E1,7.860485E0,1.0082694E1,2.2893131E1,5.087203E0,8.2625103E-1,5.673914E-1,7.379677E0,2.8164625E0,3.0554066E0,1.1010551E0,9.209442E-2,0E0,0E0,1.5304303E0,1.0236504E1,1.0047014E1,7.359446E0,1.3363035E1,8.456816E0,1.5648712E1,6.4544997E0,1.3286503E1,7.9940355E-1,2.898015E0,0E0,0E0,0E0,1.3198853E-1,2.555067E0,7.1443624E0,2.3511052E0,9.644484E-1,6.883869E-1,1.1120312E0,5.566225E-1,1.2202415E0,0E0,0E0,0E0,0E0,0E0,0E0,0E0,0E0,0E0,0E0,0E0,0E0,0E0,0E0,0E0,0E0,0E0,0E0,0E0,0E0,0E0,0E0,0E0,0E0,0E0,0E0,0E0,0E0,0E0,0E0,0E0,0E0,0E0,0E0,0E0,0E0,0E0,0E0,0E0,0E0,0E0,0E0],"parents":[2147483647,0,0,1,1,2,2,3,3,4,4,5,5,6,6,7,7,9,9,10,10,11,11,12,12,13,13,14,14,16,16,17,17,18,18,19,19,20,20,21,21,22,22,23,23,24,24,25,25,26,26,27,27,28,28,29,29,32,32,33,33,34,34,35,35,36,36,37,37,38,38,39,39,40,40,41,41,42,42,46,46,47,47,48,48,49,49,50,50,51,51,52,52,53,53,54,54],"right_children":[2,4,6,8,10,12,14,16,-1,18,20,22,24,26,28,-1,30,32,34,36,38,40,42,44,46,48,50,52,54,56,-1,-1,58,60,62,64,66,68,70,72,74,76,78,-1,-1,-1,80,82,84,86,88,90,92,94,96,-1,-1,-1,-1,-1,-1,-1,-1,-1,-1,-1,-1,-1,-1,-1,-1,-1,-1,-1,-1,-1,-1,-1,-1,-1,-1,-1,-1,-1,-1,-1,-1,-1,-1,-1,-1,-1,-1,-1,-1,-1,-1],"split_conditions":[3.38E2,1E5,6.5E6,1E0,5.5E6,8E0,1.832E3,4E0,1.239233E-2,1.993E3,2.8E1,1.09E2,1.958E3,7.4E0,1.996E3,1.0771847E-2,1E0,4.7E0,2.012E3,8E6,8E0,1.07E2,3.96E2,8.1E0,9.5E5,2.009E3,1.54E2,1.43E2,2E0,2.80083E-1,-8.47225E-2,8.522358E-2,1.8E1,3E5,2.3E5,1E0,1.7E7,1E0,1E0,6.7E0,7.3E0,4.5E6,2.01E3,-4.9747977E-2,-1.7451687E-1,1.4252759E-2,2.015E3,1.1E2,6.1E7,2E3,9E0,1E0,3.428E3,7.398778E1,1.9E7,-9.108529E-2,-3.2166946E-1,3.9870846E-3,-2.6172807E-2,1.342634E-2,-1.10085726E-1,-1.6286008E-1,3.4115132E-2,4.958926E-2,-1.2908284E-1,-1.4018403E-1,-2.1366326E-2,3.1750628E-3,-1.6559614E-1,-2.164275E-2,-2.0037182E-1,1.5464216E-2,-3.851844E-2,-3.220701E-1,-4.2440416E-3,-6.738751E-2,1.7021656E-2,6.6990525E-2,-3.0196905E-2,-5.821116E-2,-8.751297E-3,1.5589622E-2,3.094009E-2,-4.6551577E-3,3.2885544E-2,-5.6002196E-2,-9.233729E-3,-2.7438482E-2,3.9984025E-2,8.304994E-2,-9.901047E-4,-3.1007195E-2,5.737419E-2,9.499496E-3,-5.0407123E-2,5.77725E-2,3.298107E-2],"split_indices":[4,0,0,13,0,3,4,6,0,5,4,2,5,3,5,0,9,3,5,0,6,2,4,3,0,5,2,2,6,1,0,0,7,0,0,11,0,25,21,3,3,0,5,0,0,0,5,2,0,5,7,23,4,1,0,0,0,0,0,0,0,0,0,0,0,0,0,0,0,0,0,0,0,0,0,0,0,0,0,0,0,0,0,0,0,0,0,0,0,0,0,0,0,0,0,0,0],"split_type":[0,0,0,0,0,0,0,0,0,0,0,0,0,0,0,0,0,0,0,0,0,0,0,0,0,0,0,0,0,0,0,0,0,0,0,0,0,0,0,0,0,0,0,0,0,0,0,0,0,0,0,0,0,0,0,0,0,0,0,0,0,0,0,0,0,0,0,0,0,0,0,0,0,0,0,0,0,0,0,0,0,0,0,0,0,0,0,0,0,0,0,0,0,0,0,0,0],"sum_hessian":[2.076E3,8.41E2,1.235E3,1.2E1,8.29E2,1.34E2,1.101E3,1.1E1,1E0,1.89E2,6.4E2,1.21E2,1.3E1,8E2,3.01E2,1E0,1E1,6.8E1,1.21E2,4.9E1,5.91E2,9.3E1,2.8E1,4E0,9E0,7.47E2,5.3E1,2.5E1,2.76E2,9E0,1E0,2E0,6.6E1,1.01E2,2E1,1.1E1,3.8E1,2.89E2,3.02E2,8.8E1,5E0,5E0,2.3E1,2E0,2E0,1E0,8E0,4.41E2,3.06E2,4.3E1,1E1,2E1,5E0,7E0,2.69E2,1E0,8E0,3.5E1,3.1E1,7E0,9.4E1,2E0,1.8E1,9E0,2E0,2E1,1.8E1,2.87E2,2E0,2.98E2,4E0,3.9E1,4.9E1,3E0,2E0,4E0,1E0,2E1,3E0,7E0,1E0,2.19E2,2.22E2,2.43E2,6.3E1,2E1,2.3E1,2E0,8E0,1.9E1,1E0,4E0,1E0,6E0,1E0,2.3E1,2.46E2],"tree_param":{"num_deleted":"0","num_feature":"54","num_nodes":"97","size_leaf_vector":"1"}},{"base_weights":[-1.31490175E-2,-2.1169376E-1,1.633675E-1,-2.259286E0,-1.9014415E-1,-1.8275961E-1,1.9282378E-1,-2.712246E0,9.086771E-2,-5.945426E-1,-1.3056044E-1,2.7853507E-1,-3.3607844E-1,1.4878221E-1,3.4484E-1,-8.048637E-2,-2.850061E-1,-7.981494E-1,-9.9722706E-2,-2.9351562E-1,-5.0442882E-2,5.3894925E-1,-5.057276E-1,-9.4717276E-1,-6.307919E-2,2.1427165E-1,3.213857E-2,2.8373447E-1,4.3850473E-1,-1.0150943E0,-1.8637367E-1,2.0090008E-1,-6.7017245E-1,-2.6656795E-1,-2.6568964E0,-2.3507042E0,-3.3922367E-2,6.4822865E-1,-6.0476065E-2,